function testFunc(rawInput,isSampleI,temperature) { if (typeof rawInput === 'undefined') rawInput = []; if (typeof isSampleI === 'undefined') isSampleI = false; if (typeof temperature === 'undefined') temperature = 1; var characterTable = {"0":"1","1":"2","2":"i","3":"saw","4":"the","5":"best","6":"minds","7":"of","8":"my","9":"generation","10":"destroyed","11":"by","12":"madness","13":"starving","14":"hysterical","15":"naked","16":"dragging","17":"themselves","18":"through","19":"negro","20":"streets","21":"there","22":"you","23":"are","24":"they","25":"aw","26":"who","27":"sent","28":"them","29":"make","30":"everything","31":"ok","32":"take","33":"out","34":"your","35":"mittens","36":"what","37":"do","38":null,"39":null,"40":null}; var indexTable = {"1":0,"2":1,"i":2,"saw":3,"the":4,"best":5,"minds":6,"of":7,"my":8,"generation":9,"destroyed":10,"by":11,"madness":12,"starving":13,"hysterical":14,"naked":15,"dragging":16,"themselves":17,"through":18,"negro":19,"streets":20,"there":21,"you":22,"are":23,"they":24,"aw":25,"who":26,"sent":27,"them":28,"make":29,"everything":30,"ok":31,"take":32,"out":33,"your":34,"mittens":35,"what":36,"do":37,"stop-input":38,"start-output":39,"unrecognized":40}; var characters = ["1","2","i","saw","the","best","minds","of","my","generation","destroyed","by","madness","starving","hysterical","naked","dragging","themselves","through","negro","streets","there","you","are","they","aw","who","sent","them","make","everything","ok","take","out","your","mittens","what","do","stop-input","start-output","unrecognized"]; function toIndexes(value) { var maxThreshold = arguments.length > 1 && arguments[1] !== undefined ? arguments[1] : 0; var result = []; for (var i = 0, max = value.length; i < max; i++) { var character = value[i]; var index = indexTable[character]; if (index === undefined) { if (indexTable['unrecognized']) { index = indexTable['unrecognized']; } else { throw new Error('unrecognized character "' + character + '"'); } } if (index < maxThreshold) continue; result.push(index); } return result; } function toIndexesInputOutput(value1) { var value2 = arguments.length > 1 && arguments[1] !== undefined ? arguments[1] : null; var maxThreshold = arguments.length > 2 && arguments[2] !== undefined ? arguments[2] : 0; var result = void 0; if (typeof value1 === 'string') { result = toIndexes(value1.split('').concat(['stop-input', 'start-output']), maxThreshold); } else { result = toIndexes(value1.concat(['stop-input', 'start-output']), maxThreshold); } if (value2 === null) return result; if (typeof value2 === 'string') { return result.concat(toIndexes(value2.split(''), maxThreshold)); } else { return result.concat(toIndexes(value2, maxThreshold)); } } function toCharacters(indices) { var maxThreshold = arguments.length > 1 && arguments[1] !== undefined ? arguments[1] : 0; var result = []; var indexTable = indexTable; for (var i = 0, max = indices.length; i < max; i++) { var index = indices[i]; if (index < maxThreshold) continue; var character = characterTable[index]; if (character === undefined) { if (indexTable['unrecognized']) { character = characterTable[indexTable['unrecognized']]; } else { throw new Error('unrecognized index "' + index + '"'); } } else if (character !== null) { result.push(character); } } return result; } var input = formatDataIn(rawInput); var json = {"type":"LSTM","options":{"inputSize":41,"inputRange":41,"hiddenLayers":[20,20],"outputSize":41,"learningRate":0.01,"decayRate":0.999,"smoothEps":1e-8,"regc":0.000001,"clipval":5,"maxPredictionLength":100,"dataFormatter":{"values":["1","2",["i","saw","the","best","minds","of","my","generation","destroyed","by","madness","starving","hysterical","naked","dragging","themselves","through","the","negro","streets"],["there","you","are","they","are","there","aw","who","sent","them","make","everything","ok","take","out","your","mittens","what","do","you"]],"indexTable":{"1":0,"2":1,"i":2,"saw":3,"the":4,"best":5,"minds":6,"of":7,"my":8,"generation":9,"destroyed":10,"by":11,"madness":12,"starving":13,"hysterical":14,"naked":15,"dragging":16,"themselves":17,"through":18,"negro":19,"streets":20,"there":21,"you":22,"are":23,"they":24,"aw":25,"who":26,"sent":27,"them":28,"make":29,"everything":30,"ok":31,"take":32,"out":33,"your":34,"mittens":35,"what":36,"do":37,"stop-input":38,"start-output":39,"unrecognized":40},"characterTable":{"0":"1","1":"2","2":"i","3":"saw","4":"the","5":"best","6":"minds","7":"of","8":"my","9":"generation","10":"destroyed","11":"by","12":"madness","13":"starving","14":"hysterical","15":"naked","16":"dragging","17":"themselves","18":"through","19":"negro","20":"streets","21":"there","22":"you","23":"are","24":"they","25":"aw","26":"who","27":"sent","28":"them","29":"make","30":"everything","31":"ok","32":"take","33":"out","34":"your","35":"mittens","36":"what","37":"do","38":null,"39":null,"40":null},"characters":["1","2","i","saw","the","best","minds","of","my","generation","destroyed","by","madness","starving","hysterical","naked","dragging","themselves","through","negro","streets","there","you","are","they","aw","who","sent","them","make","everything","ok","take","out","your","mittens","what","do","stop-input","start-output","unrecognized"],"specialIndexes":[38,39,40]}},"input":{"rows":42,"columns":41,"weights":{"0":0.17176216840744019,"1":0.04433273524045944,"2":0.3407764136791229,"3":-0.611844003200531,"4":-0.27946892380714417,"5":-0.5708708763122559,"6":0.13189183175563812,"7":-0.8397773504257202,"8":0.03515707701444626,"9":-0.10264519602060318,"10":0.3163268566131592,"11":0.7562865614891052,"12":-0.0029884232208132744,"13":-0.34265226125717163,"14":-0.006794677581638098,"15":0.06449451297521591,"16":0.0792483314871788,"17":0.6023587584495544,"18":-0.6445727348327637,"19":0.6219720244407654,"20":-0.5233067870140076,"21":0.41128265857696533,"22":-0.008699869737029076,"23":0.0024849495384842157,"24":0.00473413523286581,"25":-0.5987342000007629,"26":0.19206184148788452,"27":-0.1440471112728119,"28":-0.39024171233177185,"29":0.8279775977134705,"30":0.47802969813346863,"31":-0.3907318115234375,"32":0.3577980101108551,"33":0.3904055953025818,"34":0.08636987954378128,"35":-0.5818642377853394,"36":0.17258533835411072,"37":0.1936764270067215,"38":0.09433882683515549,"39":0.6126805543899536,"40":-0.568367600440979,"41":0.31981581449508667,"42":0.29388710856437683,"43":-2.0936951637268066,"44":1.5709471702575684,"45":0.736088216304779,"46":0.3137027621269226,"47":-0.4235706329345703,"48":1.2978323698043823,"49":-0.5456596612930298,"50":-0.10243503004312515,"51":0.12399490177631378,"52":-1.082049012184143,"53":-0.49199676513671875,"54":0.010006872937083244,"55":0.3590492308139801,"56":0.1748477816581726,"57":-0.18730995059013367,"58":0.05754974111914635,"59":0.8239192366600037,"60":0.2118408977985382,"61":0.9614289402961731,"62":-1.113264799118042,"63":-0.6686969995498657,"64":-0.03648156672716141,"65":-0.6018489599227905,"66":1.2596975564956665,"67":0.11177357286214828,"68":-0.11509992182254791,"69":1.4021906852722168,"70":0.09394064545631409,"71":-1.087007761001587,"72":1.0697630643844604,"73":-1.2975393533706665,"74":0.23939557373523712,"75":0.5241028070449829,"76":1.226236343383789,"77":0.004258859436959028,"78":-0.02968534640967846,"79":0.4161222577095032,"80":-0.939079761505127,"81":1.1413089036941528,"82":-0.42552727460861206,"83":-0.1408424973487854,"84":-0.1360202133655548,"85":-1.0543971061706543,"86":0.39991527795791626,"87":0.5316823124885559,"88":1.2945451736450195,"89":-1.2625184059143066,"90":0.1506664752960205,"91":-0.27082791924476624,"92":-0.28741079568862915,"93":0.9645944833755493,"94":0.5919131636619568,"95":0.38246390223503113,"96":-0.31771960854530334,"97":-0.36088618636131287,"98":-0.3114086985588074,"99":0.13536417484283447,"100":-1.0441938638687134,"101":0.8317824006080627,"102":-1.0382212400436401,"103":1.101321816444397,"104":0.2590547800064087,"105":-0.453436940908432,"106":0.18824587762355804,"107":-0.9074256420135498,"108":-0.18886665999889374,"109":0.21769331395626068,"110":-1.0197371244430542,"111":1.7494136095046997,"112":0.9360806345939636,"113":-1.156079649925232,"114":0.9717556834220886,"115":0.1552983671426773,"116":-0.2644338309764862,"117":-1.2918859720230103,"118":-0.1320536732673645,"119":0.6941856145858765,"120":-0.15099932253360748,"121":1.4153372049331665,"122":-0.943248450756073,"123":0.5197526812553406,"124":1.3742728233337402,"125":0.061687055975198746,"126":0.32420289516448975,"127":-1.0057430267333984,"128":-1.4247256517410278,"129":0.0386776402592659,"130":0.30888494849205017,"131":-1.367402195930481,"132":-1.3534797430038452,"133":1.477250337600708,"134":-0.15065327286720276,"135":0.4168902635574341,"136":-1.2158632278442383,"137":1.0802576541900635,"138":1.3335597515106201,"139":1.0688374042510986,"140":1.1500848531723022,"141":0.2099420428276062,"142":1.115924596786499,"143":0.2182537168264389,"144":-0.12356924265623093,"145":-1.1253827810287476,"146":1.3442317247390747,"147":-1.2385408878326416,"148":0.26672661304473877,"149":1.0087227821350098,"150":-1.2501729726791382,"151":0.13697059452533722,"152":0.60491943359375,"153":-0.34865546226501465,"154":0.1077595055103302,"155":-0.2516604959964752,"156":1.0206193923950195,"157":1.1746971607208252,"158":0.2309369295835495,"159":1.3208537101745605,"160":-1.0611799955368042,"161":1.2857916355133057,"162":-0.0891672745347023,"163":0.23683014512062073,"164":0.08171974867582321,"165":0.8012814521789551,"166":-1.155257225036621,"167":0.1431388109922409,"168":0.5730152130126953,"169":0.3118448853492737,"170":0.21767890453338623,"171":0.13466766476631165,"172":-0.5096904635429382,"173":0.07879417389631271,"174":0.04501843452453613,"175":-0.1751643270254135,"176":-1.1094810962677002,"177":0.4676453471183777,"178":0.2868407964706421,"179":-0.17281140387058258,"180":-0.29534992575645447,"181":1.5325522422790527,"182":0.5537622570991516,"183":1.0459296703338623,"184":0.3653453588485718,"185":-0.11317016184329987,"186":-0.7046868801116943,"187":-0.5501833558082581,"188":-0.992475152015686,"189":1.1020952463150024,"190":0.9812173843383789,"191":-0.06546520441770554,"192":0.5149716138839722,"193":1.3168424367904663,"194":-0.7327364087104797,"195":0.18649078905582428,"196":-1.11282217502594,"197":1.5382760763168335,"198":0.08023206889629364,"199":0.3703567087650299,"200":0.7287518978118896,"201":0.42284801602363586,"202":0.47811970114707947,"203":0.17866484820842743,"204":0.2675315737724304,"205":1.461704969406128,"206":1.1501926183700562,"207":-0.31379467248916626,"208":0.5374138951301575,"209":-0.17722584307193756,"210":-0.09172899276018143,"211":-0.3565395474433899,"212":0.39903393387794495,"213":-1.1127989292144775,"214":-0.7482659816741943,"215":1.0018411874771118,"216":-0.4428560435771942,"217":-0.2016034573316574,"218":-0.5263106822967529,"219":1.1233223676681519,"220":0.5881034731864929,"221":0.18016208708286285,"222":0.5011817216873169,"223":0.583674967288971,"224":0.15310657024383545,"225":0.48990583419799805,"226":-0.5103009343147278,"227":-1.418363332748413,"228":0.16896778345108032,"229":-1.3447319269180298,"230":0.40616118907928467,"231":0.683603823184967,"232":-1.0407212972640991,"233":0.46074551343917847,"234":0.0612882599234581,"235":-0.2093576341867447,"236":0.4485308825969696,"237":-0.6218331456184387,"238":0.5138192772865295,"239":1.3107324838638306,"240":0.5244612693786621,"241":0.8789413571357727,"242":-0.39420434832572937,"243":1.0389072895050049,"244":-0.40776172280311584,"245":0.3727825880050659,"246":1.8635298013687134,"247":0.951062798500061,"248":-0.7540447115898132,"249":0.6913279891014099,"250":0.5106394290924072,"251":1.0427354574203491,"252":-0.23026378452777863,"253":0.20110967755317688,"254":-1.1121124029159546,"255":-1.0903749465942383,"256":1.0055451393127441,"257":-0.6293630003929138,"258":-0.9897512197494507,"259":-0.08209455758333206,"260":1.0526485443115234,"261":0.411956250667572,"262":-0.05342670902609825,"263":0.9139631390571594,"264":0.5851332545280457,"265":-0.22882437705993652,"266":0.5407497882843018,"267":-0.5772045254707336,"268":-1.2871885299682617,"269":-0.12318740040063858,"270":-0.9411571025848389,"271":0.7037367820739746,"272":0.7961005568504333,"273":-0.8678337335586548,"274":0.565717875957489,"275":0.7740324139595032,"276":-0.6911197304725647,"277":0.6104292273521423,"278":-0.9946973919868469,"279":0.8551416397094727,"280":1.9727821350097656,"281":0.39430543780326843,"282":1.1914559602737427,"283":0.31787440180778503,"284":0.8450270891189575,"285":0.6425108313560486,"286":0.6913989186286926,"287":1.7592390775680542,"288":0.30226507782936096,"289":-0.20387478172779083,"290":-1.4497530460357666,"291":-0.03233333304524422,"292":1.0385819673538208,"293":0.776954710483551,"294":-1.9803134202957153,"295":0.1582798957824707,"296":-1.0181726217269897,"297":0.031117485836148262,"298":0.44693610072135925,"299":-0.4595494568347931,"300":0.3338629901409149,"301":0.26650992035865784,"302":0.20265264809131622,"303":-0.6178315281867981,"304":1.6166250705718994,"305":-1.3866549730300903,"306":0.8528255820274353,"307":-1.193956971168518,"308":0.1599116325378418,"309":-0.29236268997192383,"310":-0.6679536700248718,"311":-0.4219188392162323,"312":-0.5473103523254395,"313":1.5794254541397095,"314":-0.21432314813137054,"315":0.6143930554389954,"316":1.3315790891647339,"317":0.9805479049682617,"318":-0.0029521810356527567,"319":0.5224619507789612,"320":1.8691178560256958,"321":1.3486135005950928,"322":-1.759943962097168,"323":1.4990930557250977,"324":1.114232063293457,"325":-0.08323996514081955,"326":2.1828370094299316,"327":-0.1907614916563034,"328":0.24401846528053284,"329":1.2967205047607422,"330":-0.40567857027053833,"331":-0.4666934311389923,"332":0.1820269227027893,"333":-0.2501014769077301,"334":1.2923520803451538,"335":-0.2795501947402954,"336":-1.2665244340896606,"337":-2.3964507579803467,"338":1.2234827280044556,"339":0.36447784304618835,"340":0.029615890234708786,"341":-0.542079508304596,"342":0.9973898530006409,"343":1.5138370990753174,"344":0.797638475894928,"345":1.153851866722107,"346":-0.47038260102272034,"347":0.9628148078918457,"348":-0.35816478729248047,"349":0.8844975233078003,"350":-0.6304054856300354,"351":0.8401733636856079,"352":-1.061874508857727,"353":0.41271108388900757,"354":0.9111402034759521,"355":-0.8426232933998108,"356":-0.4598560035228729,"357":0.18178269267082214,"358":-0.45414894819259644,"359":-1.079677700996399,"360":-0.0644470751285553,"361":1.2445528507232666,"362":0.7179402709007263,"363":-0.2702142596244812,"364":1.025073528289795,"365":-0.4276510179042816,"366":1.505629301071167,"367":0.6886627078056335,"368":-0.3194400668144226,"369":1.1330887079238892,"370":1.007805347442627,"371":1.0203346014022827,"372":0.1265931874513626,"373":-1.0629438161849976,"374":-1.5914357900619507,"375":-0.16435880959033966,"376":0.18514102697372437,"377":-1.090550422668457,"378":-0.6487061381340027,"379":0.9747111797332764,"380":-0.03623950853943825,"381":0.41260847449302673,"382":-1.0837444067001343,"383":1.0049117803573608,"384":1.0544790029525757,"385":1.0522195100784302,"386":1.0216931104660034,"387":0.10561290383338928,"388":-0.10461476445198059,"389":-0.019280681386590004,"390":-0.038520682603120804,"391":-1.1433709859848022,"392":1.0528544187545776,"393":-1.0633409023284912,"394":0.11425179988145828,"395":0.9383025765419006,"396":-1.0755201578140259,"397":0.031884633004665375,"398":-0.014601025730371475,"399":0.06879758089780807,"400":-0.0012873858213424683,"401":0.03212706372141838,"402":0.8379901647567749,"403":1.0668033361434937,"404":0.09760145843029022,"405":0.983167827129364,"406":-1.4115725755691528,"407":1.0481276512145996,"408":-0.12280866503715515,"409":-0.12834201753139496,"410":1.064817190170288,"411":1.1921340227127075,"412":0.7730569839477539,"413":-0.16956257820129395,"414":-1.2187517881393433,"415":-0.6028382182121277,"416":-0.05737590789794922,"417":0.049659363925457,"418":-0.9947253465652466,"419":-0.15572074055671692,"420":0.9483852386474609,"421":0.17519991099834442,"422":0.7697190046310425,"423":-1.3989018201828003,"424":1.0634998083114624,"425":1.2356033325195312,"426":1.2834564447402954,"427":0.8119251728057861,"428":-0.05826650932431221,"429":-0.05421561375260353,"430":-0.19627951085567474,"431":0.16402196884155273,"432":-1.0487287044525146,"433":1.3139111995697021,"434":-1.087889313697815,"435":-0.40854042768478394,"436":1.0969446897506714,"437":-1.0932143926620483,"438":-0.18679971992969513,"439":0.03468781337141991,"440":0.6490692496299744,"441":-0.2343427538871765,"442":0.41209733486175537,"443":0.7996589541435242,"444":0.9844037890434265,"445":-0.027510657906532288,"446":0.9580831527709961,"447":-0.991375207901001,"448":0.9346156716346741,"449":-0.29586902260780334,"450":-0.49547845125198364,"451":1.000504732131958,"452":2.012814521789551,"453":-0.16155345737934113,"454":0.14939813315868378,"455":-0.44485893845558167,"456":0.13347041606903076,"457":0.32103124260902405,"458":-0.1750253438949585,"459":-1.8533744812011719,"460":-0.7593847513198853,"461":1.783974528312683,"462":-0.1350061148405075,"463":0.025873633101582527,"464":-0.8914361000061035,"465":1.3837530612945557,"466":1.7259913682937622,"467":0.9380335807800293,"468":1.3144665956497192,"469":-0.16442547738552094,"470":0.6682223677635193,"471":-0.15893958508968353,"472":0.09619490057229996,"473":-1.2755601406097412,"474":0.6830176115036011,"475":-1.731006383895874,"476":0.6384791731834412,"477":1.4470463991165161,"478":-1.3094267845153809,"479":0.09745511412620544,"480":0.3455955684185028,"481":-0.4011794328689575,"482":-0.345337450504303,"483":0.14966993033885956,"484":1.007318139076233,"485":1.3953919410705566,"486":-0.0030212041456252337,"487":1.4925264120101929,"488":-0.6056235432624817,"489":1.8724753856658936,"490":0.6699630618095398,"491":0.08111558109521866,"492":0.6281004548072815,"493":1.044873595237732,"494":0.9299720525741577,"495":-0.028703458607196808,"496":-1.2186930179595947,"497":-1.321401834487915,"498":0.018291909247636795,"499":-0.057427410036325455,"500":-0.938377857208252,"501":-0.567671000957489,"502":0.9440657496452332,"503":-0.03189053013920784,"504":0.6984916925430298,"505":-1.1904852390289307,"506":1.053180456161499,"507":1.0202610492706299,"508":1.1430938243865967,"509":1.373513102531433,"510":-0.013676107861101627,"511":0.43253302574157715,"512":-0.0576530322432518,"513":0.004761290270835161,"514":-1.0014194250106812,"515":1.0712494850158691,"516":-0.945473849773407,"517":-0.09802448004484177,"518":1.298423409461975,"519":-0.9728808403015137,"520":-0.26150885224342346,"521":0.15019845962524414,"522":0.32900241017341614,"523":-0.0231143981218338,"524":0.3525133728981018,"525":1.43184494972229,"526":0.8638101816177368,"527":0.016334224492311478,"528":1.1755024194717407,"529":-1.6951944828033447,"530":1.027740240097046,"531":0.057496365159749985,"532":-0.22164574265480042,"533":0.8025855422019958,"534":1.0964727401733398,"535":0.5481099486351013,"536":-0.05120904743671417,"537":-0.9269869327545166,"538":-0.6291628479957581,"539":-0.06749408692121506,"540":0.02778523787856102,"541":-1.0094891786575317,"542":-0.6979222893714905,"543":0.9559084177017212,"544":0.08073271065950394,"545":0.5016818642616272,"546":-1.026111125946045,"547":0.9942678213119507,"548":1.0077662467956543,"549":0.9364277124404907,"550":1.0659548044204712,"551":-0.08413703739643097,"552":0.69978266954422,"553":-0.24639448523521423,"554":0.1599551886320114,"555":-1.0440287590026855,"556":0.9686922430992126,"557":-1.0478440523147583,"558":-0.2996155023574829,"559":1.1778151988983154,"560":-1.0398410558700562,"561":-0.12788109481334686,"562":0.12916846573352814,"563":0.37846359610557556,"564":-0.24281299114227295,"565":0.2242172509431839,"566":1.1285568475723267,"567":0.9849417805671692,"568":-0.09934990853071213,"569":1.158171534538269,"570":-1.2487672567367554,"571":0.927556574344635,"572":0.0063654230907559395,"573":-0.31027182936668396,"574":0.7951663136482239,"575":1.1949440240859985,"576":0.6887906789779663,"577":0.01336225401610136,"578":-1.1055071353912354,"579":-0.7234850525856018,"580":0.004878842271864414,"581":0.06706677377223969,"582":-1.2276229858398438,"583":-0.7745299935340881,"584":1.1567388772964478,"585":0.07560060918331146,"586":0.6161018013954163,"587":-1.3255053758621216,"588":1.155958890914917,"589":1.3387665748596191,"590":1.2404905557632446,"591":1.0907273292541504,"592":-0.0670846551656723,"593":0.4142189025878906,"594":-0.2192855328321457,"595":0.18625293672084808,"596":-1.003913164138794,"597":1.36680006980896,"598":-1.0942161083221436,"599":-0.30216529965400696,"600":1.1178427934646606,"601":-1.2997275590896606,"602":-0.2007819563150406,"603":0.043752286583185196,"604":0.3707687258720398,"605":-0.2132146656513214,"606":0.29154524207115173,"607":1.135791540145874,"608":0.9723171591758728,"609":-0.08096599578857422,"610":1.1838048696517944,"611":-1.5048881769180298,"612":1.1746480464935303,"613":-0.1036781296133995,"614":-0.2292817085981369,"615":1.1033509969711304,"616":1.2430078983306885,"617":0.658937931060791,"618":-0.15708746016025543,"619":-1.0927232503890991,"620":-0.6133949756622314,"621":0.09800390154123306,"622":-0.030216986313462257,"623":-1.3795369863510132,"624":-0.070659339427948,"625":1.4441533088684082,"626":0.09313839673995972,"627":0.2306843250989914,"628":-1.40492844581604,"629":1.5325515270233154,"630":1.5198520421981812,"631":1.2992405891418457,"632":0.6891518235206604,"633":-0.1429150551557541,"634":0.3108963668346405,"635":-0.32319796085357666,"636":0.16612206399440765,"637":-1.0938167572021484,"638":1.3602325916290283,"639":-1.2951639890670776,"640":-0.29114073514938354,"641":1.3407949209213257,"642":-1.5786372423171997,"643":-0.23641207814216614,"644":-0.02534390054643154,"645":0.2863537669181824,"646":-0.2539380192756653,"647":0.7896422147750854,"648":0.2389848679304123,"649":1.2811635732650757,"650":0.008147512562572956,"651":1.1263841390609741,"652":-1.1921480894088745,"653":1.5103579759597778,"654":0.17493009567260742,"655":-0.3225635886192322,"656":0.5291774272918701,"657":1.0666615962982178,"658":1.2882916927337646,"659":-0.10783915221691132,"660":-1.2920104265213013,"661":-1.850191593170166,"662":0.08241434395313263,"663":-0.006936164107173681,"664":-1.0309805870056152,"665":-0.774516761302948,"666":1.015602946281433,"667":0.16019544005393982,"668":0.7192644476890564,"669":-1.4085330963134766,"670":0.9963750243186951,"671":1.0934319496154785,"672":1.3706055879592896,"673":1.117957353591919,"674":-0.09153776615858078,"675":0.28181934356689453,"676":-0.06604873389005661,"677":0.21038182079792023,"678":-0.8801326751708984,"679":1.3741836547851562,"680":-0.9256260395050049,"681":-0.24056915938854218,"682":1.1377785205841064,"683":-1.0495514869689941,"684":-0.1924925148487091,"685":0.03526919707655907,"686":0.27852723002433777,"687":-0.23605510592460632,"688":0.3476431965827942,"689":1.0802356004714966,"690":0.8153678774833679,"691":0.04708730801939964,"692":1.0398725271224976,"693":-1.6877763271331787,"694":0.9900281429290771,"695":-0.1140303686261177,"696":-0.3813096880912781,"697":-0.2758379876613617,"698":0.72170490026474,"699":1.121537685394287,"700":-0.6264598369598389,"701":-1.1574878692626953,"702":-0.910633385181427,"703":0.44740113615989685,"704":-0.4562993049621582,"705":-0.7029961943626404,"706":-0.9094642996788025,"707":0.6774736046791077,"708":0.4888277053833008,"709":0.8608382940292358,"710":-1.0865243673324585,"711":0.5391896367073059,"712":1.0807838439941406,"713":0.9710865020751953,"714":1.4213823080062866,"715":-0.5182700753211975,"716":1.2712738513946533,"717":-0.5478071570396423,"718":0.6247700452804565,"719":-0.31601250171661377,"720":1.1207249164581299,"721":-0.4411469101905823,"722":-0.8011163473129272,"723":1.0888710021972656,"724":-0.7674017548561096,"725":-0.5870090126991272,"726":0.07785549014806747,"727":0.791336178779602,"728":-0.5327193737030029,"729":0.7383019924163818,"730":1.5595921277999878,"731":0.4606918394565582,"732":-0.5217272043228149,"733":0.9243163466453552,"734":-1.3131053447723389,"735":0.7379172444343567,"736":0.6092923283576965,"737":-0.6618419289588928,"738":2.075061082839966,"739":0.8355159163475037,"740":-1.0000280141830444,"741":1.1261790990829468,"742":0.6283064484596252,"743":1.318121314048767,"744":-0.32560914754867554,"745":0.2682974934577942,"746":-0.5663929581642151,"747":-0.8952146768569946,"748":0.7245394587516785,"749":-1.0361241102218628,"750":-1.2678569555282593,"751":0.47751089930534363,"752":0.7673221230506897,"753":0.3822002708911896,"754":-0.40018483996391296,"755":0.34980207681655884,"756":0.9452913999557495,"757":-0.4527803659439087,"758":1.0407955646514893,"759":-1.0873959064483643,"760":-1.2565354108810425,"761":-0.47683578729629517,"762":-1.1117806434631348,"763":1.24099600315094,"764":0.3472495675086975,"765":-0.5895054936408997,"766":1.3735153675079346,"767":0.28116652369499207,"768":-0.6071565747261047,"769":1.0947681665420532,"770":-0.6165692210197449,"771":0.26536446809768677,"772":1.0544723272323608,"773":0.8751116394996643,"774":0.4383794069290161,"775":1.2104018926620483,"776":0.8089788556098938,"777":0.7476072907447815,"778":1.1121858358383179,"779":1.4887938499450684,"780":0.7259149551391602,"781":-1.3851072788238525,"782":1.1740851402282715,"783":1.201041340827942,"784":0.9166549444198608,"785":0.23454563319683075,"786":0.11238667368888855,"787":-0.7215072512626648,"788":-0.2558145225048065,"789":0.20245742797851562,"790":-0.9543232917785645,"791":-1.9605175256729126,"792":0.427397221326828,"793":0.6743000149726868,"794":0.16678939759731293,"795":-0.3858347535133362,"796":0.4980989992618561,"797":0.9017571806907654,"798":-0.6677428483963013,"799":1.118171215057373,"800":-0.9762969613075256,"801":-1.0950663089752197,"802":-0.6141462326049805,"803":-1.1030114889144897,"804":1.6256632804870605,"805":0.6169448494911194,"806":-0.42098739743232727,"807":1.2442564964294434,"808":0.19350576400756836,"809":-1.1491889953613281,"810":1.1388661861419678,"811":-0.5708057880401611,"812":0.15428099036216736,"813":0.9918829798698425,"814":0.7645946741104126,"815":0.3496690094470978,"816":0.8627032041549683,"817":0.7796714305877686,"818":0.5522416830062866,"819":1.2675895690917969,"820":0.721383273601532,"821":1.2214215993881226,"822":0.2825474441051483,"823":-0.04820721223950386,"824":-0.599644660949707,"825":-0.6072111129760742,"826":0.2793729603290558,"827":-0.15946201980113983,"828":-1.0612201690673828,"829":-1.158338189125061,"830":0.9502959847450256,"831":0.09055178612470627,"832":0.1673639416694641,"833":-0.6609801650047302,"834":1.0298206806182861,"835":1.0995581150054932,"836":0.5283436179161072,"837":1.6524362564086914,"838":-0.08484401553869247,"839":1.2328788042068481,"840":-0.23623797297477722,"841":0.09414509683847427,"842":-0.9626255035400391,"843":0.6585884690284729,"844":-1.4152965545654297,"845":0.26296210289001465,"846":1.2336678504943848,"847":-0.7532654404640198,"848":0.10032591968774796,"849":0.36524322628974915,"850":-0.1513247936964035,"851":-0.1899685263633728,"852":-0.09472299367189407,"853":1.5543535947799683,"854":1.1099494695663452,"855":-0.09291879832744598,"856":1.2510948181152344,"857":-0.7640769481658936,"858":1.0907466411590576,"859":0.2939470410346985,"860":-0.18609638512134552,"861":1.3235530853271484,"862":0.5590664744377136,"863":0.741894006729126,"864":-1.2157797813415527,"865":-0.5833762288093567,"866":-0.6829394102096558,"867":0.7397298812866211,"868":-0.7222605347633362,"869":-0.5233516693115234,"870":-0.3189341127872467,"871":0.5102438926696777,"872":0.922459602355957,"873":1.7166694402694702,"874":-0.5837317705154419,"875":0.6252939701080322,"876":0.5399536490440369,"877":0.6409328579902649,"878":0.5196647644042969,"879":-0.9255075454711914,"880":-0.6328607797622681,"881":-0.8881060481071472,"882":0.9859259724617004,"883":-0.5079087018966675,"884":0.5669379830360413,"885":-0.5195593237876892,"886":-1.4902422428131104,"887":0.6473903059959412,"888":-0.6148720383644104,"889":-0.9050848484039307,"890":0.4295184910297394,"891":1.4033650159835815,"892":-0.8879967331886292,"893":1.5695425271987915,"894":0.052931640297174454,"895":0.6015464067459106,"896":-0.7186610698699951,"897":0.5988271832466125,"898":-0.580363392829895,"899":0.4801428020000458,"900":0.7495278120040894,"901":-1.454126238822937,"902":-1.7992206811904907,"903":-1.190247654914856,"904":-0.5034999251365662,"905":-0.4782828986644745,"906":1.040040135383606,"907":0.6288347840309143,"908":1.4758081436157227,"909":-0.018308695405721664,"910":1.3940902948379517,"911":1.6841932535171509,"912":-1.5121315717697144,"913":0.5319791436195374,"914":-0.03561146557331085,"915":1.0209790468215942,"916":-1.1054567098617554,"917":-0.7560691237449646,"918":-0.2543295919895172,"919":-0.43167656660079956,"920":-0.39400848746299744,"921":0.23135662078857422,"922":-0.9300225377082825,"923":0.6810171604156494,"924":1.3470746278762817,"925":-0.713749349117279,"926":1.3811849355697632,"927":-0.09529096633195877,"928":-1.011772871017456,"929":1.2691465616226196,"930":-1.3103551864624023,"931":-0.6540759205818176,"932":-0.22824028134346008,"933":-0.8107587695121765,"934":0.35635796189308167,"935":-0.2830927073955536,"936":-1.6107091903686523,"937":-0.6253124475479126,"938":-1.2787226438522339,"939":0.5584357976913452,"940":-1.3610597848892212,"941":-0.4199727773666382,"942":-0.39353975653648376,"943":0.9055293798446655,"944":-0.362491637468338,"945":0.4638283848762512,"946":0.7499251365661621,"947":-0.09090057760477066,"948":-0.9638057947158813,"949":-0.29049843549728394,"950":1.278624415397644,"951":0.30301517248153687,"952":0.6026222705841064,"953":-0.3256095349788666,"954":-1.0776565074920654,"955":1.0636451244354248,"956":-0.28002187609672546,"957":0.11102061718702316,"958":0.4648710787296295,"959":0.6260047554969788,"960":-2.048800468444824,"961":0.6587186455726624,"962":-0.8365591764450073,"963":0.7087121605873108,"964":-0.8002451062202454,"965":-0.29219135642051697,"966":0.8093252182006836,"967":0.06978967040777206,"968":-0.4570949673652649,"969":-0.23325851559638977,"970":0.10546708852052689,"971":0.18294207751750946,"972":-2.6819918155670166,"973":0.3483414649963379,"974":0.9917879104614258,"975":0.5399356484413147,"976":-2.3223116397857666,"977":0.49838197231292725,"978":1.173060655593872,"979":-0.4737067222595215,"980":-1.2000194787979126,"981":-0.208673894405365,"982":-1.8413397073745728,"983":0.6224319934844971,"984":0.4298282265663147,"985":0.42882826924324036,"986":1.595978856086731,"987":1.023924708366394,"988":-1.8353064060211182,"989":-1.9053326845169067,"990":-0.6403254270553589,"991":0.7174466848373413,"992":-0.6730036735534668,"993":-0.38589122891426086,"994":0.8057147860527039,"995":-0.9703498482704163,"996":1.6438064575195312,"997":-1.3350211381912231,"998":0.7836849093437195,"999":0.9736307859420776,"1000":1.8016668558120728,"1001":-0.9031637907028198,"1002":0.8064907789230347,"1003":-0.33760347962379456,"1004":0.8301540613174438,"1005":-0.9879392981529236,"1006":-0.38913875818252563,"1007":1.6558113098144531,"1008":-0.2959677278995514,"1009":-0.39236125349998474,"1010":0.09104407578706741,"1011":-0.7967720031738281,"1012":-0.5102753639221191,"1013":-0.8026618361473083,"1014":0.1525958925485611,"1015":0.6251111030578613,"1016":0.49176299571990967,"1017":-0.8137090802192688,"1018":0.4924619793891907,"1019":1.1892683506011963,"1020":0.399116188287735,"1021":-1.2344337701797485,"1022":0.5566369891166687,"1023":-1.0786566734313965,"1024":0.5354641079902649,"1025":0.5339750051498413,"1026":0.442785382270813,"1027":1.4164870977401733,"1028":0.7606874704360962,"1029":-0.9407268166542053,"1030":-1.9430769681930542,"1031":-0.6783230900764465,"1032":1.5279594659805298,"1033":-0.5798017382621765,"1034":-0.26453980803489685,"1035":1.1047385931015015,"1036":-0.7749117016792297,"1037":1.8293720483779907,"1038":-1.3793869018554688,"1039":1.1277766227722168,"1040":0.8877676129341125,"1041":1.7263555526733398,"1042":-0.9806717038154602,"1043":0.8151186108589172,"1044":-0.5208277702331543,"1045":0.8124289512634277,"1046":-0.8880686163902283,"1047":-0.5489341020584106,"1048":1.5669422149658203,"1049":-0.3006211221218109,"1050":-0.0780549943447113,"1051":0.2403833419084549,"1052":-1.2394136190414429,"1053":0.07572036236524582,"1054":-0.9046663641929626,"1055":0.01829255372285843,"1056":0.6970640420913696,"1057":0.4797445237636566,"1058":-0.9527565836906433,"1059":0.5576339364051819,"1060":1.2111984491348267,"1061":0.46336084604263306,"1062":-1.4337100982666016,"1063":0.5359399318695068,"1064":-1.8736894130706787,"1065":0.42503583431243896,"1066":-0.1537681668996811,"1067":0.6516813039779663,"1068":1.861971139907837,"1069":-0.30585119128227234,"1070":-1.3282536268234253,"1071":-2.1044869422912598,"1072":0.3400959372520447,"1073":1.110206961631775,"1074":-0.48034554719924927,"1075":-0.7429733276367188,"1076":0.8002259731292725,"1077":0.2846487760543823,"1078":1.877742052078247,"1079":-1.3797303438186646,"1080":0.379177063703537,"1081":1.406733751296997,"1082":1.7100098133087158,"1083":-0.4334605634212494,"1084":-0.3877823054790497,"1085":0.31428661942481995,"1086":-0.06577423214912415,"1087":0.2789674699306488,"1088":0.13131877779960632,"1089":1.6787844896316528,"1090":-0.15977707505226135,"1091":-0.520589292049408,"1092":0.5203570127487183,"1093":-0.7119712829589844,"1094":-1.15360689163208,"1095":-1.565938115119934,"1096":0.1520010232925415,"1097":-0.29290422797203064,"1098":1.2079488039016724,"1099":-0.2620792090892792,"1100":-0.09097391366958618,"1101":0.5467779040336609,"1102":0.16063916683197021,"1103":-1.2803676128387451,"1104":0.5115580558776855,"1105":-1.5186182260513306,"1106":-0.5395730137825012,"1107":-0.20021425187587738,"1108":0.4061872661113739,"1109":1.6311596632003784,"1110":-1.1974101066589355,"1111":-1.758097767829895,"1112":-1.385197639465332,"1113":0.7633652091026306,"1114":-0.15931342542171478,"1115":0.09178031980991364,"1116":-1.3152707815170288,"1117":0.09821902215480804,"1118":0.7524780631065369,"1119":0.9665795564651489,"1120":-1.258311152458191,"1121":-0.3496107757091522,"1122":1.1736440658569336,"1123":1.8557870388031006,"1124":-0.7579846978187561,"1125":-0.8228143453598022,"1126":0.6934387683868408,"1127":-0.5923460125923157,"1128":0.9072794914245605,"1129":0.18303069472312927,"1130":1.4762065410614014,"1131":0.21388576924800873,"1132":-1.288138508796692,"1133":0.12515108287334442,"1134":0.038597412407398224,"1135":-1.5860662460327148,"1136":-0.025341028347611427,"1137":1.3905259370803833,"1138":-0.970846951007843,"1139":1.6718801259994507,"1140":0.6878172159194946,"1141":-0.5629294514656067,"1142":-0.631301999092102,"1143":-0.0866541936993599,"1144":-0.6164636611938477,"1145":0.12129894644021988,"1146":0.12229237705469131,"1147":-0.9160825610160828,"1148":-0.08381164073944092,"1149":-0.49664685130119324,"1150":0.7533977627754211,"1151":0.2561459243297577,"1152":-0.6743643879890442,"1153":-1.1711827516555786,"1154":-0.01017298735678196,"1155":1.7578037977218628,"1156":0.32018619775772095,"1157":0.657625675201416,"1158":-0.7278974652290344,"1159":-0.4401979446411133,"1160":1.2165772914886475,"1161":-0.8235721588134766,"1162":-0.39239346981048584,"1163":1.0086393356323242,"1164":1.3445920944213867,"1165":-2.6960031986236572,"1166":0.23310208320617676,"1167":0.09721346944570541,"1168":0.37336266040802,"1169":-0.3999517858028412,"1170":-0.22411537170410156,"1171":1.3593412637710571,"1172":0.2146984487771988,"1173":-0.8526730537414551,"1174":-1.095845103263855,"1175":0.6521248817443848,"1176":-0.20377755165100098,"1177":-2.1695871353149414,"1178":0.6036000847816467,"1179":0.6180997490882874,"1180":0.9535372853279114,"1181":-2.2970242500305176,"1182":-0.37490224838256836,"1183":1.3287408351898193,"1184":-1.2329415082931519,"1185":-1.4518208503723145,"1186":-0.3503248393535614,"1187":-1.6918938159942627,"1188":-0.561680018901825,"1189":0.7347798347473145,"1190":0.9725196361541748,"1191":1.4489985704421997,"1192":-1.0313442945480347,"1193":-0.7585926055908203,"1194":-0.4482972323894501,"1195":0.4198708236217499,"1196":-0.5278704762458801,"1197":-0.05992523953318596,"1198":-1.2939577102661133,"1199":0.487160325050354,"1200":0.571486234664917,"1201":0.022067656740546227,"1202":-0.516803503036499,"1203":0.7565529942512512,"1204":1.635879397392273,"1205":1.0219273567199707,"1206":1.328805923461914,"1207":-0.7622002959251404,"1208":0.23110195994377136,"1209":-0.6612760424613953,"1210":0.5555644035339355,"1211":0.038602378219366074,"1212":0.9492455124855042,"1213":-0.274007648229599,"1214":-1.0280344486236572,"1215":0.5285769104957581,"1216":-0.9227831363677979,"1217":-1.2277934551239014,"1218":-0.03412354737520218,"1219":1.1568018198013306,"1220":-0.47657614946365356,"1221":1.151660442352295,"1222":1.6093966960906982,"1223":0.663099467754364,"1224":-0.31464001536369324,"1225":0.3784736692905426,"1226":-0.06624358892440796,"1227":0.5522377490997314,"1228":0.26570865511894226,"1229":-0.5967448353767395,"1230":0.5789449214935303,"1231":-0.142076775431633,"1232":0.14400726556777954,"1233":1.397611379623413,"1234":-0.5324508547782898,"1235":-1.0961493253707886,"1236":-1.2655298709869385,"1237":2.05458402633667,"1238":0.25404539704322815,"1239":-0.24654829502105713,"1240":-0.38545921444892883,"1241":-1.4297258853912354,"1242":1.2668730020523071,"1243":-0.7126428484916687,"1244":0.08540143817663193,"1245":0.0011633455287665129,"1246":1.257851481437683,"1247":-0.9483782052993774,"1248":1.2967156171798706,"1249":-1.3982255458831787,"1250":1.3452786207199097,"1251":-1.4736374616622925,"1252":-0.965813934803009,"1253":1.0443545579910278,"1254":-0.479169100522995,"1255":0.5353935360908508,"1256":-0.355975866317749,"1257":0.25666260719299316,"1258":0.8318808674812317,"1259":-1.7798247337341309,"1260":0.08642172068357468,"1261":1.527701497077942,"1262":0.17260299623012543,"1263":-0.5775996446609497,"1264":0.5491726994514465,"1265":1.8681691884994507,"1266":-0.4513665437698364,"1267":-1.0249460935592651,"1268":-0.07359670102596283,"1269":-1.6956219673156738,"1270":0.6916355490684509,"1271":0.6113035082817078,"1272":0.15246932208538055,"1273":1.0657391548156738,"1274":0.9327884912490845,"1275":-0.9962577223777771,"1276":-2.0146076679229736,"1277":-1.1293987035751343,"1278":1.6037570238113403,"1279":0.02890240214765072,"1280":-0.2346675544977188,"1281":0.025889305397868156,"1282":-0.7886714935302734,"1283":0.33307695388793945,"1284":-0.9508915543556213,"1285":0.7024379968643188,"1286":1.1623268127441406,"1287":0.37445393204689026,"1288":-3.243295907974243,"1289":0.9008854031562805,"1290":-1.498539686203003,"1291":0.657525360584259,"1292":-0.7662291526794434,"1293":-0.8672164082527161,"1294":1.3879717588424683,"1295":-0.4647635817527771,"1296":0.479262113571167,"1297":-0.6313270330429077,"1298":-0.6098052859306335,"1299":0.19485266506671906,"1300":-1.0450984239578247,"1301":-0.5293370485305786,"1302":0.8369913101196289,"1303":0.15239104628562927,"1304":-1.0229406356811523,"1305":0.5085422992706299,"1306":1.3253840208053589,"1307":-0.5388609766960144,"1308":-1.1661430597305298,"1309":0.4642010033130646,"1310":-1.8559818267822266,"1311":0.650658905506134,"1312":0.5711450576782227,"1313":0.7085754871368408,"1314":1.6628453731536865,"1315":0.48712071776390076,"1316":-1.2590421438217163,"1317":-2.3359320163726807,"1318":-0.45940741896629333,"1319":1.4143409729003906,"1320":-0.86336350440979,"1321":-0.28133663535118103,"1322":1.5073890686035156,"1323":-0.4659166932106018,"1324":2.117021083831787,"1325":-1.6247705221176147,"1326":1.2131167650222778,"1327":1.4109022617340088,"1328":1.941907286643982,"1329":-0.46121475100517273,"1330":0.5500293374061584,"1331":-1.0178015232086182,"1332":0.3598884344100952,"1333":-0.561233401298523,"1334":-0.1692832112312317,"1335":1.793286681175232,"1336":-0.4452698230743408,"1337":-0.41278427839279175,"1338":0.6384258270263672,"1339":-1.6206098794937134,"1340":-0.3868540823459625,"1341":-0.8476366400718689,"1342":0.23758140206336975,"1343":0.4708911180496216,"1344":0.6333463788032532,"1345":-0.9632911682128906,"1346":0.8019804954528809,"1347":0.9103817343711853,"1348":0.8641734719276428,"1349":-1.615684151649475,"1350":0.6682829260826111,"1351":-1.5545599460601807,"1352":-0.015024794265627861,"1353":0.20369833707809448,"1354":0.3420899212360382,"1355":1.3558733463287354,"1356":0.8140214085578918,"1357":-1.8536362648010254,"1358":-2.1832242012023926,"1359":-0.5570003986358643,"1360":1.2736310958862305,"1361":-0.7230356335639954,"1362":-0.2670881152153015,"1363":0.893410861492157,"1364":-0.9407633543014526,"1365":2.131295919418335,"1366":-1.7964783906936646,"1367":0.8471144437789917,"1368":0.7932238578796387,"1369":2.2205088138580322,"1370":-0.989035964012146,"1371":1.0206862688064575,"1372":-0.5145690441131592,"1373":0.9161165356636047,"1374":-0.883294939994812,"1375":-0.26184919476509094,"1376":1.9743056297302246,"1377":-0.10866541415452957,"1378":0.1124425008893013,"1379":0.33845534920692444,"1380":-0.925470769405365,"1381":0.11083409935235977,"1382":-0.9985044002532959,"1383":-0.1868080198764801,"1384":0.45210257172584534,"1385":0.08983910828828812,"1386":-0.8649842739105225,"1387":0.2084258794784546,"1388":0.9333918690681458,"1389":0.5715234875679016,"1390":-1.6278334856033325,"1391":0.43251779675483704,"1392":-1.4870880842208862,"1393":0.6114804744720459,"1394":-0.2382187694311142,"1395":-1.0365705490112305,"1396":0.506298303604126,"1397":0.6890518665313721,"1398":-1.0355653762817383,"1399":-1.2599822282791138,"1400":0.04268373176455498,"1401":1.390408992767334,"1402":0.7419009804725647,"1403":1.0086159706115723,"1404":-0.747986376285553,"1405":-0.9382240176200867,"1406":1.3208246231079102,"1407":-0.7899938225746155,"1408":-0.5232871174812317,"1409":0.44087639451026917,"1410":1.0588266849517822,"1411":-2.207897663116455,"1412":0.5439881086349487,"1413":-0.318392276763916,"1414":0.546288251876831,"1415":-0.47106125950813293,"1416":0.5210280418395996,"1417":0.9410335421562195,"1418":0.6232309937477112,"1419":-0.5094361901283264,"1420":-0.565588653087616,"1421":0.5570915341377258,"1422":-0.6253482699394226,"1423":-1.9640940427780151,"1424":0.3211427628993988,"1425":0.1868889480829239,"1426":0.6212188601493835,"1427":-2.3669888973236084,"1428":-0.6962966322898865,"1429":1.2673135995864868,"1430":-0.9327598214149475,"1431":-1.1637516021728516,"1432":-0.5264953970909119,"1433":-1.6793292760849,"1434":-0.006605866830796003,"1435":-0.4846585690975189,"1436":-0.39371249079704285,"1437":0.047846827656030655,"1438":1.4546349048614502,"1439":-0.07359325885772705,"1440":-0.806349515914917,"1441":-1.2437938451766968,"1442":1.504204511642456,"1443":-0.2976688742637634,"1444":0.6797263026237488,"1445":0.04502091556787491,"1446":-0.6732399463653564,"1447":0.6369167566299438,"1448":-0.44506844878196716,"1449":0.041030652821063995,"1450":-0.01655285432934761,"1451":0.44468680024147034,"1452":-0.3052714169025421,"1453":1.2475645542144775,"1454":-0.3720889091491699,"1455":1.152024269104004,"1456":-0.9714280366897583,"1457":-0.008642296306788921,"1458":-0.2159077525138855,"1459":-0.11608192324638367,"1460":-0.060591377317905426,"1461":0.28526175022125244,"1462":-0.018917907029390335,"1463":-0.1606966108083725,"1464":-1.4071757793426514,"1465":-0.521755039691925,"1466":0.7800658941268921,"1467":0.015196648426353931,"1468":-0.8331292271614075,"1469":0.13014128804206848,"1470":1.5035570859909058,"1471":-0.05389641225337982,"1472":-0.20102976262569427,"1473":0.13716790080070496,"1474":-1.4790784120559692,"1475":-0.23187828063964844,"1476":0.1147422194480896,"1477":0.07181144505739212,"1478":2.1149353981018066,"1479":-0.9699440598487854,"1480":-1.3341381549835205,"1481":-1.4234890937805176,"1482":0.15142762660980225,"1483":0.12614654004573822,"1484":-0.04272734746336937,"1485":-0.7131308913230896,"1486":-0.03441851958632469,"1487":0.582465410232544,"1488":1.5531246662139893,"1489":-1.067138671875,"1490":-0.031218374148011208,"1491":0.4078856110572815,"1492":1.793370246887207,"1493":-0.3706575930118561,"1494":-0.4963114261627197,"1495":0.4516870677471161,"1496":-0.4889170825481415,"1497":0.6043230891227722,"1498":0.2812458574771881,"1499":1.4920514822006226,"1500":-0.004072239156812429,"1501":-1.1949433088302612,"1502":0.371229350566864,"1503":-0.11936236172914505,"1504":-1.2943496704101562,"1505":-0.5330360531806946,"1506":1.0705366134643555,"1507":-0.6204046010971069,"1508":1.6505948305130005,"1509":0.31625041365623474,"1510":-0.13464218378067017,"1511":0.086973175406456,"1512":0.2377105951309204,"1513":-0.4709692895412445,"1514":0.31173616647720337,"1515":-0.3083329200744629,"1516":-0.6804934740066528,"1517":-1.7462341785430908,"1518":-1.0695594549179077,"1519":0.4451354444026947,"1520":-0.20736899971961975,"1521":-0.5244367122650146,"1522":-0.6342272162437439,"1523":-0.4176739454269409,"1524":0.578861653804779,"1525":1.0871894359588623,"1526":1.8647563457489014,"1527":-1.0325229167938232,"1528":0.16846953332424164,"1529":1.202997088432312,"1530":-0.3453928232192993,"1531":-1.0730761289596558,"1532":-0.7381375432014465,"1533":0.6971344947814941,"1534":0.030655965209007263,"1535":-0.1349203884601593,"1536":-0.9136542081832886,"1537":-0.37567582726478577,"1538":0.4662327170372009,"1539":1.291196584701538,"1540":0.5679232478141785,"1541":1.1298211812973022,"1542":-0.22199735045433044,"1543":-1.0665569305419922,"1544":0.933711051940918,"1545":-0.6987584829330444,"1546":-1.6494462490081787,"1547":-0.02650526538491249,"1548":-0.591733992099762,"1549":0.5253889560699463,"1550":-1.1545277833938599,"1551":-0.9303267002105713,"1552":0.36868056654930115,"1553":-1.1489555835723877,"1554":-0.21216917037963867,"1555":-0.9916041493415833,"1556":-1.1273036003112793,"1557":-0.504952609539032,"1558":-1.3133509159088135,"1559":-0.6116770505905151,"1560":-0.42981404066085815,"1561":-0.7472267746925354,"1562":1.6052247285842896,"1563":-0.005974292755126953,"1564":0.11126738041639328,"1565":1.1421221494674683,"1566":0.5885790586471558,"1567":1.0199060440063477,"1568":-0.619434118270874,"1569":0.7720645070075989,"1570":-0.3292141556739807,"1571":0.2635800540447235,"1572":-0.6924610137939453,"1573":-0.5502423048019409,"1574":-0.08121957629919052,"1575":-1.4619781970977783,"1576":-0.7432038187980652,"1577":-1.1400091648101807,"1578":-0.7061460614204407,"1579":0.9277884364128113,"1580":1.0377424955368042,"1581":-0.2759089171886444,"1582":0.6856539845466614,"1583":-1.2266602516174316,"1584":-0.6227372884750366,"1585":0.6743460893630981,"1586":-0.5175051689147949,"1587":-1.9722323417663574,"1588":0.6892855763435364,"1589":-0.7380418181419373,"1590":0.5792326927185059,"1591":-1.7715483903884888,"1592":-0.678946316242218,"1593":0.8163975477218628,"1594":-0.8006826639175415,"1595":0.3934815526008606,"1596":-0.5080047845840454,"1597":-0.5545377731323242,"1598":-1.6771541833877563,"1599":-0.3862614035606384,"1600":-0.14961722493171692,"1601":-0.17485395073890686,"1602":-0.8714182376861572,"1603":0.35253262519836426,"1604":0.30123069882392883,"1605":1.267302393913269,"1606":-1.2163199186325073,"1607":0.1464640498161316,"1608":-0.22242474555969238,"1609":-0.15392109751701355,"1610":0.07101355493068695,"1611":-0.10919822752475739,"1612":0.21939913928508759,"1613":-0.3514241576194763,"1614":-0.016932277008891106,"1615":-0.09385710209608078,"1616":0.058768898248672485,"1617":-0.5932120084762573,"1618":1.4101077318191528,"1619":-0.5814447402954102,"1620":1.3071048259735107,"1621":0.6086800694465637,"1622":-0.22187793254852295,"1623":0.3001967966556549,"1624":0.7995784878730774,"1625":-0.2650802433490753,"1626":0.41866251826286316,"1627":-0.9272735714912415,"1628":0.8072089552879333,"1629":-0.5109483599662781,"1630":-1.457570195198059,"1631":-0.23670558631420135,"1632":0.01291528157889843,"1633":-0.476529985666275,"1634":-0.6188499331474304,"1635":-0.206731379032135,"1636":0.23192335665225983,"1637":-0.014840126037597656,"1638":1.3735390901565552,"1639":0.21774087846279144,"1640":0.10990862548351288,"1641":0.49997270107269287,"1642":0.6899234056472778,"1643":-0.19189372658729553,"1644":-0.8275762796401978,"1645":-1.0339529514312744,"1646":-0.2962617874145508,"1647":0.39881932735443115,"1648":-0.5647968053817749,"1649":0.28253865242004395,"1650":0.4771047532558441,"1651":0.22716215252876282,"1652":1.0618016719818115,"1653":-0.7946634292602539,"1654":0.5710007548332214,"1655":0.39418283104896545,"1656":0.897221565246582,"1657":0.3042476773262024,"1658":0.04660702869296074,"1659":-0.3131932020187378,"1660":-0.1162218451499939,"1661":0.10205703228712082,"1662":-0.5836281776428223,"1663":0.7866154909133911,"1664":-0.6063074469566345,"1665":0.02698029950261116,"1666":0.6672435998916626,"1667":-0.4674173593521118,"1668":-0.13824810087680817,"1669":-0.46693316102027893,"1670":0.13662639260292053,"1671":-0.0843934491276741,"1672":0.13103368878364563,"1673":-0.07215520739555359,"1674":0.06539753824472427,"1675":0.24290062487125397,"1676":0.4650610387325287,"1677":-0.2832099497318268,"1678":0.6001964211463928,"1679":-0.42630240321159363,"1680":-0.641019880771637,"1681":-0.05456339940428734,"1682":-0.051214203238487244,"1683":0.026385072618722916,"1684":0.014015845023095608,"1685":0.014060961082577705,"1686":-0.02451837621629238,"1687":-0.04998183250427246,"1688":-0.036361321806907654,"1689":0.0008767849649302661,"1690":-0.026288583874702454,"1691":-0.054525226354599,"1692":0.05128537490963936,"1693":-0.04643639922142029,"1694":0.03953229635953903,"1695":-0.04687023535370827,"1696":-0.07928360998630524,"1697":-0.06866315007209778,"1698":0.03744447976350784,"1699":0.07182014733552933,"1700":0.03645752742886543,"1701":-0.003156250575557351,"1702":-0.062447093427181244,"1703":-0.025904562324285507,"1704":-0.003895658766850829,"1705":-0.022925326600670815,"1706":-0.019441012293100357,"1707":-0.05607273429632187,"1708":0.013292078860104084,"1709":0.011920725926756859,"1710":-0.05345349386334419,"1711":-0.06869910657405853,"1712":0.04063203185796738,"1713":-0.03722887858748436,"1714":-0.018302293494343758,"1715":-0.046354543417692184,"1716":-0.04446229338645935,"1717":0.05845695734024048,"1718":0.06242987513542175,"1719":0.05992358922958374,"1720":-0.06305157393217087,"1721":0.022168416529893875}},"hiddenLayers":[{"inputMatrix":{"rows":20,"columns":41,"weights":{"0":0.12640881538391113,"1":0.3153432309627533,"2":-1.7704417705535889,"3":-0.026494234800338745,"4":1.4797877073287964,"5":1.3836939334869385,"6":0.674238920211792,"7":-0.34128865599632263,"8":-0.31782615184783936,"9":-0.5252209901809692,"10":0.21235397458076477,"11":-0.16471612453460693,"12":-1.3965858221054077,"13":0.5573045015335083,"14":-0.0484870970249176,"15":0.0010865121148526669,"16":-0.5026758909225464,"17":0.2711917757987976,"18":-0.2438250184059143,"19":0.5431909561157227,"20":-0.12872011959552765,"21":0.3655015230178833,"22":-0.12191551923751831,"23":-0.8820090293884277,"24":-0.15089450776576996,"25":1.8998398780822754,"26":-0.006829136051237583,"27":0.27078843116760254,"28":0.3640401363372803,"29":0.4533366560935974,"30":-1.7809772491455078,"31":-0.2560575306415558,"32":-1.14979088306427,"33":0.2918471097946167,"34":-0.015041963197290897,"35":-0.22785912454128265,"36":0.1148773580789566,"37":0.9502282738685608,"38":0.3819354176521301,"39":0.606495201587677,"40":1.031680941581726,"41":0.5296095609664917,"42":-0.1162487119436264,"43":0.16709528863430023,"44":0.6304090023040771,"45":0.017789123579859734,"46":0.34177350997924805,"47":-0.932636559009552,"48":0.4287724196910858,"49":-0.24345239996910095,"50":-0.633644163608551,"51":0.2976591885089874,"52":-0.46763306856155396,"53":-0.06932806223630905,"54":-0.22126130759716034,"55":0.20081882178783417,"56":0.15537935495376587,"57":-0.1510361135005951,"58":-0.7775568962097168,"59":0.08965696394443512,"60":-0.8707073330879211,"61":0.5819289088249207,"62":-0.608695387840271,"63":-0.20589277148246765,"64":0.036955248564481735,"65":-0.01930304616689682,"66":-0.4519212245941162,"67":-0.4721391797065735,"68":-0.3146039843559265,"69":0.5459610223770142,"70":-0.6519019603729248,"71":0.49333903193473816,"72":0.7955928444862366,"73":0.14583991467952728,"74":-0.8061866164207458,"75":0.5901616215705872,"76":0.5180869698524475,"77":-0.3384888172149658,"78":0.1362704634666443,"79":0.12972630560398102,"80":-0.17181296646595,"81":0.2860718071460724,"82":-0.6398996114730835,"83":-0.6614915132522583,"84":0.07208674401044846,"85":-0.2911691963672638,"86":0.020358910784125328,"87":-0.05627499520778656,"88":0.9136847257614136,"89":-0.23474407196044922,"90":0.8647863864898682,"91":0.324205607175827,"92":-1.0430082082748413,"93":-0.061063170433044434,"94":0.22318491339683533,"95":0.15714843571186066,"96":-0.9015860557556152,"97":0.08501642942428589,"98":0.2810887396335602,"99":-0.8532522916793823,"100":-0.1823943555355072,"101":0.4070216417312622,"102":-0.1201351210474968,"103":0.4030613899230957,"104":0.6478962302207947,"105":0.25571179389953613,"106":0.7886114716529846,"107":-0.11934994906187057,"108":-0.8227431774139404,"109":0.896571934223175,"110":-0.5963488817214966,"111":-0.4121224582195282,"112":0.1372538059949875,"113":-0.42144688963890076,"114":0.2477055788040161,"115":-0.6068630218505859,"116":-0.7729930281639099,"117":-0.18897400796413422,"118":-0.783362090587616,"119":-0.10991092771291733,"120":-0.9203462600708008,"121":-0.29445767402648926,"122":0.18817545473575592,"123":-1.1580346822738647,"124":-1.1241424083709717,"125":-0.32764533162117004,"126":-0.10358694195747375,"127":0.12231394648551941,"128":0.41157329082489014,"129":0.10649294406175613,"130":0.3704899251461029,"131":1.050973653793335,"132":0.6951343417167664,"133":-1.2333136796951294,"134":0.13639146089553833,"135":-0.2675795257091522,"136":0.4776853024959564,"137":-1.2819509506225586,"138":-0.6311449408531189,"139":-0.26096078753471375,"140":-0.013134929351508617,"141":-0.141017347574234,"142":-0.02310050092637539,"143":-0.21488572657108307,"144":0.32272782921791077,"145":1.038727045059204,"146":-0.3452471196651459,"147":0.8135423064231873,"148":-0.1498391181230545,"149":-0.9806631803512573,"150":1.3383944034576416,"151":-0.4205032289028168,"152":-0.09585922211408615,"153":-0.06026051193475723,"154":-0.6069275140762329,"155":0.03807225078344345,"156":-0.24798452854156494,"157":-1.332604169845581,"158":0.06852567195892334,"159":-1.0577911138534546,"160":0.461586058139801,"161":-1.1315371990203857,"162":-0.17959897220134735,"163":-0.6323208808898926,"164":-0.19568033516407013,"165":-0.16730083525180817,"166":0.49321243166923523,"167":-0.008545921184122562,"168":-0.4636065363883972,"169":-0.5078869462013245,"170":-1.3095815181732178,"171":1.2563549280166626,"172":0.1409493386745453,"173":0.0240116436034441,"174":-0.12305767834186554,"175":-0.008443564176559448,"176":0.6753872036933899,"177":-0.4655274450778961,"178":-0.22914016246795654,"179":-0.31681421399116516,"180":0.47890612483024597,"181":-0.986314594745636,"182":0.18441569805145264,"183":-0.6753185391426086,"184":0.13147398829460144,"185":0.016819819808006287,"186":0.09619802236557007,"187":0.5411432981491089,"188":0.27084532380104065,"189":-0.32425475120544434,"190":-0.5199533700942993,"191":0.2754562795162201,"192":-0.2155115008354187,"193":-0.5278179049491882,"194":0.13582327961921692,"195":0.05259145423769951,"196":0.1860569715499878,"197":-0.6639084219932556,"198":-0.2202693223953247,"199":0.60249263048172,"200":-0.34115278720855713,"201":-0.5032855868339539,"202":-0.1060820147395134,"203":-0.8669348359107971,"204":-0.027680618688464165,"205":-0.11199823021888733,"206":-0.015074201859533787,"207":0.1685808300971985,"208":0.15020857751369476,"209":-0.40167152881622314,"210":-0.7521122097969055,"211":-0.4590638279914856,"212":0.9678727984428406,"213":-0.26453664898872375,"214":0.23059402406215668,"215":0.06847785413265228,"216":-0.15697452425956726,"217":0.5564005374908447,"218":-0.6156036257743835,"219":0.18977800011634827,"220":0.15032854676246643,"221":0.6234333515167236,"222":-0.7763718366622925,"223":0.30200767517089844,"224":-0.16881169378757477,"225":0.333698034286499,"226":-0.12041979283094406,"227":-0.19580216705799103,"228":0.6414799094200134,"229":-0.1487596333026886,"230":0.06730431318283081,"231":0.10122107714414597,"232":-0.05700068920850754,"233":0.046121615916490555,"234":-0.927164614200592,"235":0.010971004143357277,"236":0.1671830713748932,"237":0.04177815094590187,"238":-0.6570585370063782,"239":0.009112113155424595,"240":1.1384518146514893,"241":-0.05354402959346771,"242":-0.5832853317260742,"243":0.08487860858440399,"244":-1.3686630725860596,"245":-0.2481764405965805,"246":0.258798211812973,"247":-0.1339423507452011,"248":-0.2521902620792389,"249":-1.0991495847702026,"250":0.1974383443593979,"251":0.3819142282009125,"252":0.6451801061630249,"253":-0.7683840990066528,"254":0.1843043714761734,"255":-0.17208291590213776,"256":-0.21031871438026428,"257":0.8632815480232239,"258":-0.12330249696969986,"259":0.3045947253704071,"260":-0.4071827828884125,"261":-0.20191644132137299,"262":-0.2082497775554657,"263":0.5743495225906372,"264":-0.9221550226211548,"265":0.6388158798217773,"266":-0.5386272668838501,"267":0.800196647644043,"268":0.24630603194236755,"269":-0.2525206506252289,"270":0.18170851469039917,"271":0.04393772780895233,"272":0.014069478027522564,"273":0.350055456161499,"274":0.17135517299175262,"275":0.6706531643867493,"276":0.004308334086090326,"277":-0.06732406467199326,"278":-0.10689175128936768,"279":0.7526739239692688,"280":-0.37393224239349365,"281":-0.6565960645675659,"282":-0.07748899608850479,"283":0.24635298550128937,"284":-0.08892986178398132,"285":0.5723544955253601,"286":-0.18068714439868927,"287":-1.0247094631195068,"288":-0.39676809310913086,"289":0.37927114963531494,"290":-1.1018822193145752,"291":0.011282169260084629,"292":0.0345662459731102,"293":0.9149109125137329,"294":-0.6831201314926147,"295":0.3692775368690491,"296":-0.09518222510814667,"297":-0.14812535047531128,"298":0.8991103172302246,"299":0.35815396904945374,"300":0.10365419834852219,"301":-0.3981160521507263,"302":0.12003128975629807,"303":0.04852905496954918,"304":0.505173921585083,"305":-0.7838760614395142,"306":0.4901300072669983,"307":-0.6259461641311646,"308":1.1947675943374634,"309":0.7521033883094788,"310":-0.04810421168804169,"311":0.568712592124939,"312":-0.7300415635108948,"313":-0.20271776616573334,"314":0.2933027744293213,"315":-0.8910640478134155,"316":-0.05852595344185829,"317":0.45836973190307617,"318":-1.0538012981414795,"319":1.04341721534729,"320":0.37754082679748535,"321":-0.4721389710903168,"322":-0.5640528202056885,"323":-0.26460474729537964,"324":0.19590643048286438,"325":-0.22979523241519928,"326":0.5895781517028809,"327":-0.8116950988769531,"328":0.6018704175949097,"329":0.4268483817577362,"330":0.13149522244930267,"331":-0.7753267288208008,"332":0.1930733621120453,"333":0.5595923662185669,"334":1.019157886505127,"335":-1.2215577363967896,"336":-0.44855812191963196,"337":-1.3462423086166382,"338":0.36414918303489685,"339":0.34956908226013184,"340":-0.17057177424430847,"341":0.10581943392753601,"342":0.131897434592247,"343":0.32706230878829956,"344":-0.07436098158359528,"345":0.7330635190010071,"346":-0.5161268711090088,"347":1.26064133644104,"348":-0.41904959082603455,"349":0.39318791031837463,"350":-0.13698047399520874,"351":-0.17464615404605865,"352":-0.38929077982902527,"353":0.20145776867866516,"354":0.44245338439941406,"355":-0.14246585965156555,"356":-0.32037878036499023,"357":1.3174149990081787,"358":0.14052918553352356,"359":-0.62112957239151,"360":0.013089710846543312,"361":1.2426735162734985,"362":0.3942095637321472,"363":-0.6208778619766235,"364":0.5434449911117554,"365":0.3784143030643463,"366":0.6272311806678772,"367":1.3039331436157227,"368":-0.019792107865214348,"369":0.11240513622760773,"370":-0.03519650176167488,"371":-1.1008610725402832,"372":0.5535956025123596,"373":0.9326949715614319,"374":1.1329113245010376,"375":0.12977486848831177,"376":-0.3193826377391815,"377":-0.11123392730951309,"378":-0.08788187056779861,"379":-0.13386601209640503,"380":-0.7200889587402344,"381":-1.2435985803604126,"382":0.7781728506088257,"383":0.0018532417016103864,"384":-0.4997895359992981,"385":-0.8621727228164673,"386":0.5075923204421997,"387":0.5710102319717407,"388":0.16944172978401184,"389":0.5867744088172913,"390":-0.416250616312027,"391":-0.0019601723179221153,"392":-0.9338617324829102,"393":0.042962539941072464,"394":1.009071707725525,"395":0.13774457573890686,"396":0.17383159697055817,"397":0.4376678764820099,"398":0.4952528178691864,"399":-0.8616091012954712,"400":0.4820553958415985,"401":-1.1010754108428955,"402":0.40226972103118896,"403":0.0860447883605957,"404":0.20582079887390137,"405":0.15177063643932343,"406":0.9106582403182983,"407":0.08155783265829086,"408":0.46802350878715515,"409":0.9027470350265503,"410":-0.0798255056142807,"411":-0.5737402439117432,"412":-0.43121498823165894,"413":-0.5132226347923279,"414":0.7727864384651184,"415":0.7895118594169617,"416":-0.025556543841958046,"417":0.401228666305542,"418":0.9541141390800476,"419":0.3811228573322296,"420":-1.095190405845642,"421":0.33182498812675476,"422":-0.37752971053123474,"423":0.8899174928665161,"424":-1.0440598726272583,"425":-1.2677427530288696,"426":-0.6007513999938965,"427":-0.129961296916008,"428":-0.37170955538749695,"429":-0.1249290257692337,"430":-0.4585552215576172,"431":0.5025976300239563,"432":0.7677054405212402,"433":-0.6310809850692749,"434":0.8202301263809204,"435":0.06028394773602486,"436":-1.1325989961624146,"437":0.9743039011955261,"438":0.06256558746099472,"439":-0.3044292628765106,"440":-0.2363654375076294,"441":-0.4027850925922394,"442":-0.17666080594062805,"443":-0.13961085677146912,"444":-0.9553201198577881,"445":-0.10749810934066772,"446":-1.1143652200698853,"447":0.5597215294837952,"448":-1.0181529521942139,"449":-0.42163875699043274,"450":-0.40726765990257263,"451":-0.7681401371955872,"452":-1.0275040864944458,"453":-0.4635634124279022,"454":-0.011744968593120575,"455":0.6028608083724976,"456":0.8539574146270752,"457":0.11375411599874496,"458":0.25315243005752563,"459":0.963774561882019,"460":0.8658306002616882,"461":-1.1345627307891846,"462":-0.07886804640293121,"463":-0.5086088180541992,"464":0.7613406777381897,"465":-0.7980558276176453,"466":-0.939889132976532,"467":-0.7030187845230103,"468":-0.04130244255065918,"469":-0.006234332453459501,"470":0.30384260416030884,"471":0.00013685789599549025,"472":0.11712823808193207,"473":0.6043705344200134,"474":-0.6428833603858948,"475":0.6590348482131958,"476":0.4610986113548279,"477":-0.9459078907966614,"478":0.8805421590805054,"479":0.23934662342071533,"480":-0.07273631542921066,"481":-0.5004386901855469,"482":0.010604841634631157,"483":-0.4225369691848755,"484":0.14491361379623413,"485":-0.8402879238128662,"486":0.07975391298532486,"487":-0.9481835961341858,"488":0.5536637902259827,"489":-1.0062735080718994,"490":-0.1427919715642929,"491":-0.13048474490642548,"492":0.11649298667907715,"493":0.34773534536361694,"494":-1.4025514125823975,"495":0.558330237865448,"496":0.8053377866744995,"497":1.2282047271728516,"498":0.38817134499549866,"499":-0.2258523404598236,"500":-0.47452542185783386,"501":-0.4338236451148987,"502":-0.0344356894493103,"503":-0.7213656306266785,"504":-0.9127090573310852,"505":0.9053811430931091,"506":0.14630089700222015,"507":-0.3344501256942749,"508":-0.796687662601471,"509":0.8960731625556946,"510":0.3759763836860657,"511":0.6588728427886963,"512":0.49309882521629333,"513":-0.2959093749523163,"514":-0.292889803647995,"515":-0.76167893409729,"516":-0.5077927112579346,"517":1.1496459245681763,"518":0.5003369450569153,"519":0.08120137453079224,"520":0.5614836812019348,"521":0.8189893960952759,"522":-0.7709387540817261,"523":0.3344166576862335,"524":-1.0213972330093384,"525":1.145398497581482,"526":0.26453596353530884,"527":0.23680567741394043,"528":0.41229844093322754,"529":0.36402764916419983,"530":0.3222920596599579,"531":0.6181713342666626,"532":0.8447272181510925,"533":-0.8183344602584839,"534":-1.2692190408706665,"535":-0.703822910785675,"536":0.3701438307762146,"537":0.6150278449058533,"538":0.22649405896663666,"539":-0.4910902976989746,"540":0.8079369068145752,"541":0.8074389100074768,"542":1.5994367599487305,"543":-1.2624952793121338,"544":-0.6659467816352844,"545":0.017473367974162102,"546":0.3386337161064148,"547":-0.6786994934082031,"548":-0.4169926941394806,"549":-0.2067948877811432,"550":0.09075167030096054,"551":0.24451546370983124,"552":0.27373260259628296,"553":0.15704114735126495,"554":-0.039110053330659866,"555":0.6915539503097534,"556":-0.08649947494268417,"557":0.4116528332233429,"558":0.06591764092445374,"559":-0.5000734925270081,"560":1.1956627368927002,"561":0.2527630925178528,"562":-0.5546399354934692,"563":-0.10112276673316956,"564":0.05418571084737778,"565":-0.017409104853868484,"566":-0.3043878674507141,"567":-0.30234959721565247,"568":0.7797541618347168,"569":-1.1804674863815308,"570":-0.05827286094427109,"571":-0.865494430065155,"572":-0.6585047841072083,"573":0.01302625983953476,"574":-0.8239412903785706,"575":-0.9914241433143616,"576":-0.19178354740142822,"577":-0.1365266591310501,"578":0.33378005027770996,"579":0.16889743506908417,"580":0.1486455500125885,"581":0.007734942715615034,"582":0.8469007611274719,"583":0.7453387975692749,"584":-1.2158221006393433,"585":-0.25861668586730957,"586":-0.1624508798122406,"587":0.5084877610206604,"588":-0.841870903968811,"589":-0.22832714021205902,"590":-0.057496633380651474,"591":-0.7604417204856873,"592":-0.060348205268383026,"593":0.2847135066986084,"594":-0.28817254304885864,"595":0.34971073269844055,"596":0.9157728552818298,"597":-0.09036246687173843,"598":0.8572313189506531,"599":0.5194616913795471,"600":-1.3072134256362915,"601":1.3003971576690674,"602":-0.24541985988616943,"603":-0.509873628616333,"604":-0.918524444103241,"605":-0.2601301670074463,"606":-0.5507023930549622,"607":-0.7149562835693359,"608":-0.8557617664337158,"609":0.23100915551185608,"610":-1.1218310594558716,"611":-0.19448891282081604,"612":-0.7677781581878662,"613":-0.3870244026184082,"614":0.5022407174110413,"615":0.3976331353187561,"616":1.333445429801941,"617":0.9014899134635925,"618":-0.42492738366127014,"619":-0.7750328183174133,"620":-0.9043945074081421,"621":0.5657860636711121,"622":-0.46000340580940247,"623":-1.1752980947494507,"624":-1.1293821334838867,"625":0.9564510583877563,"626":0.1748773455619812,"627":0.5017691254615784,"628":-0.8200163245201111,"629":0.9001212120056152,"630":1.3695756196975708,"631":0.630882203578949,"632":0.04766665771603584,"633":-0.34296485781669617,"634":0.9138244986534119,"635":-0.424060583114624,"636":0.6090528964996338,"637":-0.020104985684156418,"638":0.8052003979682922,"639":-1.0597022771835327,"640":0.6973116993904114,"641":0.6121108531951904,"642":-0.9886077642440796,"643":-0.28286054730415344,"644":0.6101261973381042,"645":-0.8532412648200989,"646":-0.8308298587799072,"647":0.3493781089782715,"648":0.2995905578136444,"649":0.47915950417518616,"650":-0.15455779433250427,"651":1.0807725191116333,"652":-0.6946574449539185,"653":1.3882790803909302,"654":0.40802061557769775,"655":0.14943790435791016,"656":0.43670764565467834,"657":0.1564725637435913,"658":-1.0485069751739502,"659":0.45153698325157166,"660":0.7674826383590698,"661":0.39094382524490356,"662":-0.35837817192077637,"663":0.7507559657096863,"664":-0.3263967037200928,"665":0.3062429428100586,"666":-0.629900336265564,"667":-0.31394898891448975,"668":-0.38834482431411743,"669":0.6383045315742493,"670":0.24709148705005646,"671":-0.16091090440750122,"672":-0.38037413358688354,"673":-1.2706646919250488,"674":0.33836695551872253,"675":-0.28040310740470886,"676":0.43396198749542236,"677":-0.4610136151313782,"678":-0.3582993447780609,"679":-0.31952324509620667,"680":-0.4011921286582947,"681":0.12925101816654205,"682":-0.04802041873335838,"683":0.3399680256843567,"684":0.6440515518188477,"685":-0.7265798449516296,"686":0.37817737460136414,"687":0.3957744538784027,"688":-0.06622511148452759,"689":-0.5301668047904968,"690":0.24909105896949768,"691":0.6886666417121887,"692":-0.6081734895706177,"693":0.35828232765197754,"694":0.30110278725624084,"695":-0.6189876198768616,"696":0.005822116509079933,"697":0.6493861079216003,"698":1.022009015083313,"699":0.3150584101676941,"700":-0.8275256156921387,"701":-0.3052481412887573,"702":-0.16580095887184143,"703":1.0786302089691162,"704":-0.831334114074707,"705":-0.4582156240940094,"706":-1.4285860061645508,"707":0.8711166977882385,"708":0.4909982979297638,"709":0.03422992676496506,"710":-0.4474966824054718,"711":0.46954333782196045,"712":0.7078572511672974,"713":0.42155972123146057,"714":1.01777184009552,"715":-0.6373317241668701,"716":0.8680516481399536,"717":-0.46471789479255676,"718":0.7125748991966248,"719":-0.007207727059721947,"720":0.4808123707771301,"721":-0.41646644473075867,"722":-0.06626912206411362,"723":0.41221871972084045,"724":-0.5809435844421387,"725":-0.43450838327407837,"726":0.8704933524131775,"727":0.2026059478521347,"728":-0.571786642074585,"729":0.16487304866313934,"730":1.3873190879821777,"731":0.40647318959236145,"732":-0.7352458238601685,"733":0.4651358723640442,"734":-0.01883802004158497,"735":0.7885821461677551,"736":0.9312683939933777,"737":-0.16245754063129425,"738":-0.6515530943870544,"739":-0.4035903811454773,"740":0.6503337621688843,"741":-0.19079110026359558,"742":-0.418600857257843,"743":-0.45265620946884155,"744":-0.6260350346565247,"745":0.8584755659103394,"746":0.3548375964164734,"747":0.3647601306438446,"748":-0.21080966293811798,"749":0.05957961454987526,"750":0.38425782322883606,"751":-0.42974281311035156,"752":-0.35167795419692993,"753":-0.26761457324028015,"754":0.6535333395004272,"755":-1.0223995447158813,"756":0.19748832285404205,"757":-0.4619479477405548,"758":0.17991015315055847,"759":0.002510619116947055,"760":0.428480327129364,"761":0.5395436882972717,"762":0.48653310537338257,"763":-0.22618664801120758,"764":-0.3675838112831116,"765":0.3673390746116638,"766":-0.3788836598396301,"767":-1.0238300561904907,"768":0.18237654864788055,"769":-0.014620224013924599,"770":0.3377053141593933,"771":-0.6983927488327026,"772":-0.5839192271232605,"773":0.8303990960121155,"774":-0.38191506266593933,"775":-0.3545372784137726,"776":-0.2630365788936615,"777":-1.0075267553329468,"778":-0.20671619474887848,"779":0.1414395272731781,"780":0.9231408834457397,"781":0.4645574986934662,"782":-0.6178505420684814,"783":-0.5393311977386475,"784":-0.5805810689926147,"785":0.7870670557022095,"786":-0.42735859751701355,"787":-0.8747692704200745,"788":-0.842064380645752,"789":0.8201680779457092,"790":0.36670687794685364,"791":0.6856691241264343,"792":-0.6152176260948181,"793":0.38740405440330505,"794":0.8491674661636353,"795":0.582380473613739,"796":0.6087472438812256,"797":-0.47261151671409607,"798":0.9622140526771545,"799":-0.28343334794044495,"800":0.6223306655883789,"801":-0.03774990886449814,"802":0.6793189644813538,"803":-0.4609385132789612,"804":-0.08788692206144333,"805":0.7457500100135803,"806":-0.5351004004478455,"807":-0.7110977172851562,"808":0.6587018966674805,"809":0.13947536051273346,"810":-0.7328901290893555,"811":0.441360205411911,"812":0.5636441707611084,"813":0.2985098958015442,"814":-0.342803955078125,"815":0.6540349721908569,"816":-0.4962121546268463,"817":0.8672141432762146,"818":0.55245041847229,"819":-0.30695679783821106}},"inputHidden":{"rows":20,"columns":20,"weights":{"0":0.0811864361166954,"1":0.5163027048110962,"2":0.254422128200531,"3":-0.006117772776633501,"4":0.13498802483081818,"5":-0.10348311811685562,"6":-0.11167790740728378,"7":0.3092702627182007,"8":0.2843016982078552,"9":-1.0931744575500488,"10":-0.03698592633008957,"11":-0.0607529915869236,"12":0.8565506339073181,"13":-0.04449739307165146,"14":-0.2293315976858139,"15":0.27586448192596436,"16":-0.08140158653259277,"17":-0.28097400069236755,"18":0.1947382241487503,"19":0.004289821721613407,"20":-0.6671534180641174,"21":0.5530619025230408,"22":-0.6347628831863403,"23":-0.005840779282152653,"24":0.3320761024951935,"25":0.42116397619247437,"26":0.3801916837692261,"27":-1.2691326141357422,"28":-0.5976477265357971,"29":-0.5539942383766174,"30":0.1388426125049591,"31":0.5561155676841736,"32":-0.12590259313583374,"33":0.07235033065080643,"34":-0.5531663298606873,"35":-1.1214821338653564,"36":-0.0804934874176979,"37":-1.1956899166107178,"38":-0.4934529960155487,"39":-0.17503002285957336,"40":0.07525718212127686,"41":-0.28066492080688477,"42":0.8402402997016907,"43":0.388773649930954,"44":-0.2026268094778061,"45":0.3061411380767822,"46":0.6752048134803772,"47":-0.661295473575592,"48":-0.3197755813598633,"49":-0.6448721289634705,"50":-0.24946218729019165,"51":0.281623899936676,"52":0.3988420069217682,"53":0.295845091342926,"54":-0.031159374862909317,"55":-0.009206020273268223,"56":0.24586203694343567,"57":0.06973325461149216,"58":-0.15780159831047058,"59":-0.7086047530174255,"60":-0.5493452548980713,"61":0.0020131967030465603,"62":-0.2057764232158661,"63":-0.46544551849365234,"64":1.1022340059280396,"65":0.9043392539024353,"66":-0.7508333325386047,"67":-0.9278741478919983,"68":0.9102336764335632,"69":0.08191724121570587,"70":0.9803417921066284,"71":-0.6362282037734985,"72":-0.2717653214931488,"73":-0.6614164113998413,"74":0.005136310588568449,"75":-0.32711634039878845,"76":-0.9690396785736084,"77":0.21041414141654968,"78":-1.0577541589736938,"79":-0.7246295213699341,"80":0.6817600727081299,"81":-0.2284872978925705,"82":0.6106316447257996,"83":0.12538766860961914,"84":-0.5586167573928833,"85":-0.21127045154571533,"86":0.5495914816856384,"87":-0.13304483890533447,"88":-0.7811293005943298,"89":-0.3298014998435974,"90":-0.21097688376903534,"91":0.26315486431121826,"92":0.13262829184532166,"93":0.22278045117855072,"94":0.2444271743297577,"95":0.0931185856461525,"96":0.18815211951732635,"97":0.3787781894207001,"98":0.3089355230331421,"99":0.2986079454421997,"100":-0.026741988956928253,"101":-0.19292351603507996,"102":0.45919105410575867,"103":-0.04663781076669693,"104":0.20416440069675446,"105":-0.1485024392604828,"106":0.3613029718399048,"107":0.3378928005695343,"108":-0.535417914390564,"109":-0.7366824150085449,"110":-0.010281994007527828,"111":0.10838843882083893,"112":0.3177761435508728,"113":0.0014501094119623303,"114":0.3348703980445862,"115":0.20769889652729034,"116":-0.01896991953253746,"117":0.021542586386203766,"118":-0.22259970009326935,"119":-0.1950850933790207,"120":0.3543134927749634,"121":-0.3465850055217743,"122":0.8605643510818481,"123":0.2694088816642761,"124":-0.37150654196739197,"125":-0.05169624835252762,"126":0.8631120920181274,"127":-0.4182450473308563,"128":-0.4556353986263275,"129":-0.4441438317298889,"130":-0.30047810077667236,"131":0.2294168472290039,"132":0.7069807052612305,"133":0.3311448395252228,"134":-0.06748393177986145,"135":-0.23012344539165497,"136":0.29409080743789673,"137":-0.8444649577140808,"138":0.14451158046722412,"139":0.02561884932219982,"140":0.37893518805503845,"141":-0.28722402453422546,"142":-0.21954210102558136,"143":-0.03321981057524681,"144":0.08943002671003342,"145":0.39141830801963806,"146":-0.5202569961547852,"147":0.25129005312919617,"148":-0.5861499309539795,"149":0.448650985956192,"150":0.045287054032087326,"151":-0.07979245483875275,"152":0.1795540452003479,"153":-0.11813002824783325,"154":0.3321860134601593,"155":0.28979331254959106,"156":-0.01269909180700779,"157":1.479979157447815,"158":-0.4220498204231262,"159":0.09729697555303574,"160":-0.4132169485092163,"161":0.3035632371902466,"162":-0.5331275463104248,"163":-0.2833871841430664,"164":-0.13779528439044952,"165":-0.1417449563741684,"166":-0.368316113948822,"167":0.5048089623451233,"168":0.28500083088874817,"169":-1.3034336566925049,"170":0.4166869521141052,"171":-0.4665645956993103,"172":0.3931286334991455,"173":-0.36441585421562195,"174":0.008513863198459148,"175":0.45297971367836,"176":-0.5141714811325073,"177":0.47613945603370667,"178":0.13062480092048645,"179":0.20712248980998993,"180":0.11074403673410416,"181":0.422920823097229,"182":-0.05853162333369255,"183":-0.14869096875190735,"184":0.6732853055000305,"185":0.20350965857505798,"186":0.1765618473291397,"187":-0.21576040983200073,"188":-0.30994144082069397,"189":0.5788021087646484,"190":0.39239418506622314,"191":-0.29641491174697876,"192":0.6666586995124817,"193":-0.4483560621738434,"194":-0.9630274772644043,"195":0.6342160105705261,"196":-0.5586532950401306,"197":-0.43133842945098877,"198":-0.28142786026000977,"199":-0.20051954686641693,"200":0.10050226002931595,"201":-0.26180461049079895,"202":-0.13577356934547424,"203":0.22116968035697937,"204":0.1816430389881134,"205":-0.015143444761633873,"206":0.3271671235561371,"207":-0.5978604555130005,"208":-0.04710189253091812,"209":0.7162672281265259,"210":0.07475236803293228,"211":-0.0015110679669305682,"212":-0.7846910357475281,"213":0.04524426907300949,"214":-0.015373514033854008,"215":-0.2753218412399292,"216":0.006394915282726288,"217":-0.5632691383361816,"218":-0.044620681554079056,"219":-0.16685150563716888,"220":0.03806477040052414,"221":-0.3040165901184082,"222":-0.27690088748931885,"223":0.07631989568471909,"224":0.21314743161201477,"225":0.2921585440635681,"226":0.18703056871891022,"227":-0.7617455124855042,"228":0.21954365074634552,"229":0.4729019105434418,"230":0.1891118735074997,"231":-0.28708478808403015,"232":-0.5573588013648987,"233":-0.3850659430027008,"234":0.16938169300556183,"235":0.34854763746261597,"236":-0.19262677431106567,"237":-0.38849836587905884,"238":-0.3033945560455322,"239":-0.3146919906139374,"240":0.0524526983499527,"241":0.00018886476755142212,"242":-0.48513224720954895,"243":-0.0910276398062706,"244":0.09946870058774948,"245":-0.4122057855129242,"246":-0.9991528391838074,"247":0.6593186259269714,"248":0.6456462144851685,"249":-0.11959489434957504,"250":0.0763942077755928,"251":-0.12342086434364319,"252":-0.6302460432052612,"253":-0.08429383486509323,"254":0.1466679871082306,"255":-0.08796793222427368,"256":-0.07996053993701935,"257":0.7312806844711304,"258":0.2526610195636749,"259":0.010547320358455181,"260":0.32726794481277466,"261":-0.7352954745292664,"262":0.5297048687934875,"263":0.9669817090034485,"264":-0.29654020071029663,"265":-0.048306673765182495,"266":0.7786788940429688,"267":-0.8608699440956116,"268":-0.15807229280471802,"269":0.65314120054245,"270":-0.6194874048233032,"271":0.6735789179801941,"272":-1.0019354820251465,"273":0.4192657768726349,"274":-0.05879528075456619,"275":0.28972092270851135,"276":0.4247293174266815,"277":-0.05541297048330307,"278":-0.022233007475733757,"279":-0.3953877091407776,"280":-0.24331940710544586,"281":-0.18871502578258514,"282":-0.22166235744953156,"283":0.5600680112838745,"284":-0.3793070614337921,"285":-0.15012779831886292,"286":0.10206781327724457,"287":-0.6403068900108337,"288":0.4690455198287964,"289":-0.31464052200317383,"290":-0.4932759404182434,"291":0.5625327825546265,"292":-0.16003993153572083,"293":0.502215564250946,"294":0.05680450052022934,"295":-0.3653733730316162,"296":0.42133328318595886,"297":0.5012497901916504,"298":0.19809257984161377,"299":0.14870406687259674,"300":0.1338159739971161,"301":0.41468408703804016,"302":0.1351265162229538,"303":-0.08219519257545471,"304":-0.10062244534492493,"305":0.04116838797926903,"306":-0.145833358168602,"307":0.6587589979171753,"308":-0.45088592171669006,"309":-0.456866055727005,"310":-0.08602779358625412,"311":-0.14623402059078217,"312":0.5102964043617249,"313":-0.4416418969631195,"314":0.47680845856666565,"315":0.3908838629722595,"316":-0.15623630583286285,"317":0.43580153584480286,"318":-0.05527668818831444,"319":0.44329196214675903,"320":0.031267743557691574,"321":-0.8870679140090942,"322":0.26254409551620483,"323":0.547965407371521,"324":-0.7261906862258911,"325":-0.6852532625198364,"326":0.37135398387908936,"327":0.33355480432510376,"328":0.5104781985282898,"329":-0.09182041138410568,"330":-0.2723587155342102,"331":0.5380120277404785,"332":-0.06272287666797638,"333":0.15843601524829865,"334":-0.8312946557998657,"335":-0.007428165525197983,"336":0.20627951622009277,"337":-0.44777631759643555,"338":0.6893392205238342,"339":-0.3659675419330597,"340":0.9264377355575562,"341":0.04711774364113808,"342":0.1699286848306656,"343":0.14889809489250183,"344":-0.5753619074821472,"345":-0.1296432763338089,"346":0.7531811594963074,"347":0.39559081196784973,"348":-0.2093161940574646,"349":-0.26516032218933105,"350":-0.23729076981544495,"351":0.08830879628658295,"352":0.2758233845233917,"353":0.015948224812746048,"354":-0.17299990355968475,"355":0.6764174699783325,"356":0.07356258481740952,"357":0.5546495914459229,"358":0.3487788736820221,"359":-0.10954419523477554,"360":0.32091453671455383,"361":-0.11584503948688507,"362":0.4983516037464142,"363":-0.11859305948019028,"364":0.20334193110466003,"365":0.3847736418247223,"366":0.6138695478439331,"367":0.34788060188293457,"368":-0.6849761009216309,"369":-0.01888086460530758,"370":-0.16164377331733704,"371":0.07119825482368469,"372":-0.06628602743148804,"373":0.04538492485880852,"374":0.28103336691856384,"375":0.4624820053577423,"376":0.07498164474964142,"377":0.2301303744316101,"378":-0.5333609580993652,"379":-0.20647531747817993,"380":0.20662154257297516,"381":-0.04792690649628639,"382":0.0686480700969696,"383":0.0886898934841156,"384":0.028378324583172798,"385":0.20070192217826843,"386":-0.20812350511550903,"387":0.9716968536376953,"388":0.17967458069324493,"389":-0.41656967997550964,"390":0.06271295249462128,"391":0.044754479080438614,"392":0.5746901631355286,"393":-0.05188685655593872,"394":0.3154447376728058,"395":0.8517228960990906,"396":-0.07577341794967651,"397":0.47303685545921326,"398":-0.2771603763103485,"399":-0.20937661826610565}},"inputBias":{"rows":20,"columns":1,"weights":{"0":-0.28887996077537537,"1":-0.14834241569042206,"2":-0.22011786699295044,"3":-0.5155670642852783,"4":-0.47650131583213806,"5":-0.29455801844596863,"6":-0.14246594905853271,"7":0.006899480242282152,"8":-0.5077499747276306,"9":0.12272781878709793,"10":-0.5159485936164856,"11":-0.4517645537853241,"12":-1.339413046836853,"13":-0.02802143804728985,"14":-0.957802414894104,"15":-0.5331606268882751,"16":-0.11819256097078323,"17":0.02613912522792816,"18":-0.3783702254295349,"19":-0.48837894201278687}},"forgetMatrix":{"rows":20,"columns":41,"weights":{"0":0.3110043406486511,"1":0.39600321650505066,"2":-0.3635738492012024,"3":0.02585206925868988,"4":0.15457013249397278,"5":0.33803609013557434,"6":-0.08136290311813354,"7":-0.252056360244751,"8":-0.42626798152923584,"9":-0.30601605772972107,"10":0.3272533714771271,"11":-0.07380899786949158,"12":-0.49302756786346436,"13":-0.02631884627044201,"14":0.47277992963790894,"15":0.07179517298936844,"16":-0.20927400887012482,"17":0.7697466015815735,"18":-0.04691298305988312,"19":0.15198297798633575,"20":0.11382713168859482,"21":-0.363058477640152,"22":-0.637394368648529,"23":-0.1719961017370224,"24":-0.42935335636138916,"25":0.3084293603897095,"26":0.3580820858478546,"27":-0.34640154242515564,"28":0.7299587726593018,"29":0.4798772931098938,"30":-0.008730349130928516,"31":0.32349660992622375,"32":-0.2712872624397278,"33":0.7542763352394104,"34":0.5147215127944946,"35":-0.3048761487007141,"36":0.551866352558136,"37":0.2656813859939575,"38":0.29837092757225037,"39":0.36691227555274963,"40":0.20170223712921143,"41":0.17008182406425476,"42":-0.3455182909965515,"43":-0.7976938486099243,"44":0.6560836434364319,"45":0.6261705756187439,"46":0.6718477606773376,"47":-0.6244874596595764,"48":0.18717624247074127,"49":0.04476645961403847,"50":0.623889148235321,"51":-0.2405361533164978,"52":-0.5159088373184204,"53":-1.1939884424209595,"54":0.6898660063743591,"55":0.04294669255614281,"56":-0.3955686688423157,"57":-0.9752013683319092,"58":-0.5219287276268005,"59":0.6365357041358948,"60":-0.5990523099899292,"61":0.43157052993774414,"62":-0.5914747714996338,"63":-0.3131047189235687,"64":-0.6953548192977905,"65":-0.01790102943778038,"66":1.11068856716156,"67":-0.6339384913444519,"68":0.06387843936681747,"69":0.9495556950569153,"70":0.06741500645875931,"71":-1.1969292163848877,"72":0.9340877532958984,"73":-0.7996932864189148,"74":-0.35142338275909424,"75":0.4077727496623993,"76":-0.08008091151714325,"77":-0.30782750248908997,"78":0.5642349720001221,"79":-0.10300038754940033,"80":-0.17127452790737152,"81":1.1068462133407593,"82":-0.550922691822052,"83":-0.5960997343063354,"84":-0.1437029242515564,"85":0.3694978952407837,"86":0.027906326577067375,"87":0.10255200415849686,"88":-0.6618718504905701,"89":0.6540238857269287,"90":0.44738835096359253,"91":0.7031811475753784,"92":-0.4961329996585846,"93":-0.04385961592197418,"94":-0.07524162530899048,"95":0.09772994369268417,"96":-0.5422751307487488,"97":-0.14942863583564758,"98":-0.19109146296977997,"99":-0.4919896423816681,"100":0.2946431636810303,"101":-0.6538185477256775,"102":0.36345186829566956,"103":-0.3579440414905548,"104":0.2824751138687134,"105":-0.07803593575954437,"106":0.3887522518634796,"107":-0.07977854460477829,"108":-0.2929953336715698,"109":0.4273001551628113,"110":0.45731687545776367,"111":-0.6344861388206482,"112":-0.18489937484264374,"113":0.5651916265487671,"114":-0.11404354125261307,"115":-0.5914876461029053,"116":-0.3733787536621094,"117":0.4833912253379822,"118":-0.570928156375885,"119":0.12684886157512665,"120":-0.5171623229980469,"121":-0.7462893724441528,"122":-0.22144682705402374,"123":0.1760108917951584,"124":0.01551554724574089,"125":0.11964718252420425,"126":0.651805579662323,"127":0.11945625394582748,"128":0.02384709008038044,"129":-0.7393516898155212,"130":0.8304740786552429,"131":-0.22965799272060394,"132":0.4813648760318756,"133":0.282642126083374,"134":-0.5791495442390442,"135":0.0019833757542073727,"136":0.004490757826715708,"137":0.06821799278259277,"138":0.20659486949443817,"139":0.008835499174892902,"140":-0.8684052228927612,"141":0.5063403248786926,"142":-0.6718684434890747,"143":0.6432911157608032,"144":-0.665951132774353,"145":-0.23619776964187622,"146":0.11992613971233368,"147":-0.23363935947418213,"148":-0.27608221769332886,"149":-0.23171141743659973,"150":-0.1882765293121338,"151":0.07066112756729126,"152":-0.5959129333496094,"153":0.15192648768424988,"154":0.7346153855323792,"155":0.014727199450135231,"156":-0.7478071451187134,"157":0.37325140833854675,"158":0.7344527840614319,"159":-0.05534139648079872,"160":-0.13175247609615326,"161":0.11989003419876099,"162":-0.6624017357826233,"163":0.03926403820514679,"164":-0.5187181234359741,"165":-0.48599714040756226,"166":0.35999977588653564,"167":-0.08292364329099655,"168":-0.30779922008514404,"169":-0.3374454975128174,"170":0.1685687005519867,"171":0.10943425446748734,"172":0.44370022416114807,"173":0.5107245445251465,"174":-0.33152544498443604,"175":0.0801447182893753,"176":0.28047609329223633,"177":-0.32325825095176697,"178":-0.47714152932167053,"179":0.20814649760723114,"180":0.3931049108505249,"181":-0.8234264254570007,"182":0.006297712214291096,"183":0.00207308866083622,"184":-0.032751698046922684,"185":0.07604875415563583,"186":0.5601769685745239,"187":0.3252060115337372,"188":0.4464947581291199,"189":-0.41823336482048035,"190":-0.4815289080142975,"191":0.3828415274620056,"192":-0.41859936714172363,"193":-0.684954047203064,"194":0.3768536150455475,"195":-0.1912335902452469,"196":0.374135285615921,"197":-0.8089687824249268,"198":-0.47774410247802734,"199":0.08720825612545013,"200":-0.5292987823486328,"201":-0.1884688436985016,"202":-0.5350591540336609,"203":-0.8122009038925171,"204":-0.3588957190513611,"205":-0.38788747787475586,"206":-0.367294043302536,"207":-0.2257118821144104,"208":0.29346412420272827,"209":0.3976159393787384,"210":-0.015201992355287075,"211":-0.14302390813827515,"212":0.8200076222419739,"213":0.3616815507411957,"214":0.49995115399360657,"215":-0.23080921173095703,"216":-0.36085519194602966,"217":0.09426034241914749,"218":-0.03992079198360443,"219":-0.2163355052471161,"220":-0.18736465275287628,"221":-0.10338104516267776,"222":-0.4983353912830353,"223":0.514841616153717,"224":-0.5993372201919556,"225":0.42780792713165283,"226":-0.325415700674057,"227":0.3277433514595032,"228":-0.14334839582443237,"229":0.36113038659095764,"230":0.3961072862148285,"231":-0.1503123939037323,"232":0.19672904908657074,"233":0.13009203970432281,"234":-0.655882716178894,"235":-0.3890271782875061,"236":0.2503902316093445,"237":-0.13758082687854767,"238":-0.410676509141922,"239":-0.33829766511917114,"240":0.47397369146347046,"241":-0.30224913358688354,"242":-0.04955902323126793,"243":-0.3418581485748291,"244":-0.8718695044517517,"245":0.19569680094718933,"246":0.3137029707431793,"247":0.36839431524276733,"248":0.15430095791816711,"249":-0.20896118879318237,"250":-0.22581614553928375,"251":-0.2765358090400696,"252":0.09962198138237,"253":-0.14230410754680634,"254":-0.27219828963279724,"255":-0.3751278519630432,"256":0.34211936593055725,"257":0.1657712757587433,"258":0.2893874943256378,"259":-0.22835542261600494,"260":0.2698103189468384,"261":0.25200510025024414,"262":0.21060146391391754,"263":0.47647979855537415,"264":-0.15568937361240387,"265":0.19402992725372314,"266":-0.23971694707870483,"267":0.10441897064447403,"268":-0.4908863604068756,"269":0.2154373824596405,"270":-0.4497377872467041,"271":-0.2998467981815338,"272":0.4003385305404663,"273":-0.3494960367679596,"274":-0.13275079429149628,"275":0.27048009634017944,"276":0.3042672276496887,"277":-0.22971682250499725,"278":0.3350019156932831,"279":0.34289267659187317,"280":0.3353119492530823,"281":-0.1851731538772583,"282":0.34606823325157166,"283":-0.35102272033691406,"284":0.254207581281662,"285":0.27206799387931824,"286":-0.22189950942993164,"287":0.3298977017402649,"288":0.037865132093429565,"289":0.2527349889278412,"290":-0.8733988404273987,"291":0.2061072289943695,"292":-0.20476754009723663,"293":0.5817012190818787,"294":-0.48545101284980774,"295":0.265568345785141,"296":0.5381569266319275,"297":0.0557875782251358,"298":0.18372362852096558,"299":0.5480929613113403,"300":-0.27754834294319153,"301":0.11761565506458282,"302":0.10367948561906815,"303":0.4715127944946289,"304":0.2715112566947937,"305":-0.7409433126449585,"306":0.01730933040380478,"307":-0.609882652759552,"308":0.739004909992218,"309":0.13466845452785492,"310":0.25404417514801025,"311":0.032514482736587524,"312":-0.23136745393276215,"313":0.5260708928108215,"314":-0.12043340504169464,"315":-0.4072698652744293,"316":-0.2342475801706314,"317":0.3668365180492401,"318":-0.20510604977607727,"319":0.28032436966896057,"320":-0.05003140866756439,"321":0.0828232616186142,"322":-0.0996929481625557,"323":0.45053380727767944,"324":-0.17792916297912598,"325":0.0568687729537487,"326":0.24171943962574005,"327":-0.485148161649704,"328":0.89702969789505,"329":0.675801694393158,"330":0.15239182114601135,"331":-0.23269353806972504,"332":-0.24378636479377747,"333":-0.26785773038864136,"334":0.3341776132583618,"335":-0.22123096883296967,"336":-0.6519689559936523,"337":-0.14845433831214905,"338":0.6611140966415405,"339":0.2074802964925766,"340":0.2520620822906494,"341":-0.4188650846481323,"342":0.8401256799697876,"343":0.464295357465744,"344":0.22971557080745697,"345":0.6309617161750793,"346":-0.17380252480506897,"347":-0.12545718252658844,"348":-0.12199781090021133,"349":0.1195770874619484,"350":-0.8220797181129456,"351":0.2791444957256317,"352":-0.790116012096405,"353":-0.23378027975559235,"354":0.8401503562927246,"355":-0.6632820963859558,"356":-0.06494765728712082,"357":0.4185684025287628,"358":0.35753563046455383,"359":-0.19741059839725494,"360":0.4618029296398163,"361":0.32415080070495605,"362":0.8508754968643188,"363":-0.2762601375579834,"364":0.7079859972000122,"365":-0.17712709307670593,"366":0.5953412652015686,"367":0.45027750730514526,"368":-0.32430070638656616,"369":-0.35515642166137695,"370":-0.2109350860118866,"371":-0.7683647274971008,"372":0.6965592503547668,"373":0.9936563968658447,"374":0.5288655757904053,"375":0.03587711974978447,"376":0.2555891275405884,"377":0.16726814210414886,"378":0.5962429642677307,"379":-0.26907235383987427,"380":-0.4214998185634613,"381":-0.8709110021591187,"382":0.6859009265899658,"383":-0.4267229437828064,"384":-0.49312126636505127,"385":-0.6575723886489868,"386":-0.04599585384130478,"387":0.5259437561035156,"388":-0.5957152247428894,"389":0.7508760690689087,"390":-0.3041762113571167,"391":0.5374734997749329,"392":-0.7916245460510254,"393":0.30489280819892883,"394":0.8803895115852356,"395":-0.3028411567211151,"396":0.3437269926071167,"397":0.4770343005657196,"398":-0.20686492323875427,"399":-0.7655483484268188,"400":0.32461702823638916,"401":-0.29829466342926025,"402":-0.367461234331131,"403":-0.4042673408985138,"404":0.3956126868724823,"405":-0.33676666021347046,"406":0.7948510646820068,"407":-0.10189918428659439,"408":0.04798206314444542,"409":0.6746162176132202,"410":0.397901326417923,"411":0.19492165744304657,"412":-0.18145044147968292,"413":0.5143582820892334,"414":0.4722840189933777,"415":0.2469087839126587,"416":-0.5789982676506042,"417":0.6747106313705444,"418":-0.11736112833023071,"419":0.3337364196777344,"420":0.06779009103775024,"421":-0.44384491443634033,"422":-0.04980509728193283,"423":0.2007635235786438,"424":0.0530339740216732,"425":-0.20526324212551117,"426":-0.02594797872006893,"427":-0.8380140662193298,"428":0.3020854890346527,"429":-0.6665629744529724,"430":0.310064435005188,"431":-0.37241995334625244,"432":-0.22618573904037476,"433":-0.05463484674692154,"434":-0.29622945189476013,"435":-0.5671185851097107,"436":0.004022940061986446,"437":-0.1238916739821434,"438":-0.027936002239584923,"439":-0.11801695823669434,"440":0.5118691921234131,"441":0.5385151505470276,"442":0.16030500829219818,"443":-0.46979275345802307,"444":0.24947118759155273,"445":0.5486368536949158,"446":-0.009122342802584171,"447":-0.03570740297436714,"448":0.15286552906036377,"449":-0.28890684247016907,"450":0.25223129987716675,"451":0.30878952145576477,"452":0.273171067237854,"453":-0.008320789784193039,"454":0.40299537777900696,"455":0.8315779566764832,"456":0.06257081776857376,"457":-0.5357661247253418,"458":0.7354362607002258,"459":-0.06598740816116333,"460":0.700005829334259,"461":-0.035883329808712006,"462":-0.47041937708854675,"463":-0.07691094279289246,"464":0.16529735922813416,"465":0.06537292152643204,"466":-0.29080674052238464,"467":-0.0795506089925766,"468":-0.36030641198158264,"469":0.3956415057182312,"470":-0.7675310969352722,"471":0.40539416670799255,"472":-0.27814391255378723,"473":-0.26521065831184387,"474":-0.09867412596940994,"475":-0.3394898474216461,"476":-0.23441193997859955,"477":0.005145657807588577,"478":-0.13502086699008942,"479":-0.030112335458397865,"480":-0.2641032338142395,"481":0.24980533123016357,"482":0.47210779786109924,"483":0.16336439549922943,"484":-0.5188299417495728,"485":0.32351475954055786,"486":0.6826026439666748,"487":0.1298413723707199,"488":-0.014895500615239143,"489":-0.043824855238199234,"490":-0.46869075298309326,"491":0.01175412256270647,"492":0.36331555247306824,"493":0.4397282004356384,"494":-0.12414314597845078,"495":-0.36245062947273254,"496":-0.023174211382865906,"497":0.15465261042118073,"498":0.4444703161716461,"499":-0.6413044333457947,"500":-0.28693947196006775,"501":-0.4482732117176056,"502":0.38784292340278625,"503":0.34337618947029114,"504":-0.23223640024662018,"505":0.005773392505943775,"506":0.3558773696422577,"507":0.21837131679058075,"508":-0.1064387783408165,"509":0.5191008448600769,"510":-0.5160050392150879,"511":0.5622334480285645,"512":-0.3383329212665558,"513":0.32985979318618774,"514":-0.4486924707889557,"515":-0.08837641030550003,"516":-0.3845965564250946,"517":-0.17603150010108948,"518":0.37281298637390137,"519":-0.283065527677536,"520":0.43120312690734863,"521":0.8248080611228943,"522":0.3247750401496887,"523":-0.31446602940559387,"524":0.10822058469057083,"525":0.5901069045066833,"526":0.40559622645378113,"527":-0.5566316246986389,"528":0.47133001685142517,"529":-0.05477349832653999,"530":0.3394225835800171,"531":0.6348278522491455,"532":-0.300666868686676,"533":0.43522149324417114,"534":0.3016694486141205,"535":-0.08650271594524384,"536":0.47797226905822754,"537":0.925033450126648,"538":0.2031494379043579,"539":-0.49600574374198914,"540":0.4549965560436249,"541":-0.1914292722940445,"542":0.4753086268901825,"543":0.08014529198408127,"544":-0.4227747321128845,"545":0.10649628937244415,"546":0.13074953854084015,"547":0.16963635385036469,"548":-0.15927644073963165,"549":0.07326890528202057,"550":-0.6396955847740173,"551":0.30940982699394226,"552":-0.4818655848503113,"553":0.3024710416793823,"554":-0.3435921370983124,"555":-0.2265162616968155,"556":-0.05183597654104233,"557":-0.2522403299808502,"558":-0.4518885910511017,"559":0.020150713622570038,"560":-0.16828174889087677,"561":-0.1910834163427353,"562":-0.2021961808204651,"563":0.5209859013557434,"564":0.4364914000034332,"565":0.19979645311832428,"566":-0.3805384337902069,"567":0.3161472678184509,"568":0.529115617275238,"569":0.08877184242010117,"570":0.004318947438150644,"571":0.27300208806991577,"572":-0.3117370009422302,"573":0.2088821679353714,"574":0.05339308828115463,"575":-0.11142601817846298,"576":0.664618730545044,"577":-0.03911823779344559,"578":-0.8968580365180969,"579":-0.5379176735877991,"580":-0.09465256333351135,"581":0.030288932844996452,"582":0.13931140303611755,"583":0.03882947191596031,"584":-0.18180331587791443,"585":0.28340768814086914,"586":0.5019381642341614,"587":-0.6775106191635132,"588":-0.10327527672052383,"589":0.9017367362976074,"590":0.5303972363471985,"591":-0.3376931846141815,"592":-0.2352755218744278,"593":-0.23143263161182404,"594":-0.18068233132362366,"595":-0.010471002198755741,"596":-0.03860476240515709,"597":0.7196235656738281,"598":0.053223513066768646,"599":-0.6475181579589844,"600":-0.2874141037464142,"601":-0.03775729984045029,"602":-0.021766841411590576,"603":-0.49222448468208313,"604":0.7648071050643921,"605":0.2177935093641281,"606":0.49223753809928894,"607":-0.2787328064441681,"608":-0.020621344447135925,"609":-0.3188501000404358,"610":-0.353270947933197,"611":-0.7053737044334412,"612":-0.0983712300658226,"613":-0.4354097545146942,"614":-0.36029359698295593,"615":-0.5789889693260193,"616":-0.575002908706665,"617":-0.10010716319084167,"618":-0.10997302830219269,"619":0.1627923548221588,"620":0.005636291578412056,"621":0.04511917382478714,"622":0.22066344320774078,"623":0.5381545424461365,"624":0.4290827512741089,"625":-0.44252869486808777,"626":-0.1006799265742302,"627":0.20872461795806885,"628":0.01011189166456461,"629":-0.5240511298179626,"630":-0.3060271739959717,"631":0.021934930235147476,"632":-0.7678728699684143,"633":0.15901349484920502,"634":-0.23391415178775787,"635":0.24679844081401825,"636":0.12844081223011017,"637":0.5241029858589172,"638":-0.1895124614238739,"639":0.6704785823822021,"640":0.09022290259599686,"641":-0.338683545589447,"642":0.45155566930770874,"643":-0.4476740062236786,"644":-0.7161337733268738,"645":-0.1657884418964386,"646":-0.1966879665851593,"647":0.00785741489380598,"648":-0.7511704564094543,"649":-0.6748972535133362,"650":0.19394272565841675,"651":-0.38920363783836365,"652":0.197343647480011,"653":-0.3957592844963074,"654":-0.5654378533363342,"655":0.05195297673344612,"656":0.23227478563785553,"657":-0.2892864942550659,"658":-0.18621063232421875,"659":0.5547757148742676,"660":0.2664879262447357,"661":0.138162761926651,"662":-0.38904574513435364,"663":0.5953244566917419,"664":0.0157534908503294,"665":0.6173973083496094,"666":0.0021438878029584885,"667":-0.40067869424819946,"668":-0.0597943551838398,"669":0.2060503363609314,"670":-0.029354292899370193,"671":-0.11385078728199005,"672":-0.025655586272478104,"673":-0.5959279537200928,"674":0.3958187997341156,"675":-0.550232470035553,"676":0.34361732006073,"677":-0.46879294514656067,"678":-0.053242795169353485,"679":-0.04471131041646004,"680":-0.18304456770420074,"681":-0.2833174765110016,"682":-0.5839558243751526,"683":-0.10755660384893417,"684":0.37229377031326294,"685":-0.4029439389705658,"686":0.11881264299154282,"687":0.5676512122154236,